{"learner":{"attributes":{"scikit_learn":"{\"_estimator_type\": \"classifier\"}"},"feature_names":[],"feature_types":[],"gradient_booster":{"model":{"cats":{"enc":[],"feature_segments":[],"sorted_idx":[]},"gbtree_model_param":{"num_parallel_tree":"1","num_trees":"600"},"iteration_indptr":[0,3,6,9,12,15,18,21,24,27,30,33,36,39,42,45,48,51,54,57,60,63,66,69,72,75,78,81,84,87,90,93,96,99,102,105,108,111,114,117,120,123,126,129,132,135,138,141,144,147,150,153,156,159,162,165,168,171,174,177,180,183,186,189,192,195,198,201,204,207,210,213,216,219,222,225,228,231,234,237,240,243,246,249,252,255,258,261,264,267,270,273,276,279,282,285,288,291,294,297,300,303,306,309,312,315,318,321,324,327,330,333,336,339,342,345,348,351,354,357,360,363,366,369,372,375,378,381,384,387,390,393,396,399,402,405,408,411,414,417,420,423,426,429,432,435,438,441,444,447,450,453,456,459,462,465,468,471,474,477,480,483,486,489,492,495,498,501,504,507,510,513,516,519,522,525,528,531,534,537,540,543,546,549,552,555,558,561,564,567,570,573,576,579,582,585,588,591,594,597,600],"tree_info":[0,1,2,0,1,2,0,1,2,0,1,2,0,1,2,0,1,2,0,1,2,0,1,2,0,1,2,0,1,2,0,1,2,0,1,2,0,1,2,0,1,2,0,1,2,0,1,2,0,1,2,0,1,2,0,1,2,0,1,2,0,1,2,0,1,2,0,1,2,0,1,2,0,1,2,0,1,2,0,1,2,0,1,2,0,1,2,0,1,2,0,1,2,0,1,2,0,1,2,0,1,2,0,1,2,0,1,2,0,1,2,0,1,2,0,1,2,0,1,2,0,1,2,0,1,2,0,1,2,0,1,2,0,1,2,0,1,2,0,1,2,0,1,2,0,1,2,0,1,2,0,1,2,0,1,2,0,1,2,0,1,2,0,1,2,0,1,2,0,1,2,0,1,2,0,1,2,0,1,2,0,1,2,0,1,2,0,1,2,0,1,2,0,1,2,0,1,2,0,1,2,0,1,2,0,1,2,0,1,2,0,1,2,0,1,2,0,1,2,0,1,2,0,1,2,0,1,2,0,1,2,0,1,2,0,1,2,0,1,2,0,1,2,0,1,2,0,1,2,0,1,2,0,1,2,0,1,2,0,1,2,0,1,2,0,1,2,0,1,2,0,1,2,0,1,2,0,1,2,0,1,2,0,1,2,0,1,2,0,1,2,0,1,2,0,1,2,0,1,2,0,1,2,0,1,2,0,1,2,0,1,2,0,1,2,0,1,2,0,1,2,0,1,2,0,1,2,0,1,2,0,1,2,0,1,2,0,1,2,0,1,2,0,1,2,0,1,2,0,1,2,0,1,2,0,1,2,0,1,2,0,1,2,0,1,2,0,1,2,0,1,2,0,1,2,0,1,2,0,1,2,0,1,2,0,1,2,0,1,2,0,1,2,0,1,2,0,1,2,0,1,2,0,1,2,0,1,2,0,1,2,0,1,2,0,1,2,0,1,2,0,1,2,0,1,2,0,1,2,0,1,2,0,1,2,0,1,2,0,1,2,0,1,2,0,1,2,0,1,2,0,1,2,0,1,2,0,1,2,0,1,2,0,1,2,0,1,2,0,1,2,0,1,2,0,1,2,0,1,2,0,1,2,0,1,2,0,1,2,0,1,2,0,1,2,0,1,2,0,1,2,0,1,2,0,1,2,0,1,2,0,1,2,0,1,2,0,1,2,0,1,2,0,1,2,0,1,2,0,1,2,0,1,2,0,1,2,0,1,2,0,1,2,0,1,2,0,1,2,0,1,2,0,1,2,0,1,2,0,1,2,0,1,2,0,1,2,0,1,2,0,1,2,0,1,2,0,1,2,0,1,2,0,1,2,0,1,2,0,1,2,0,1,2,0,1,2,0,1,2],"trees":[{"base_weights":[-3.3657885E-1,-6.470247E-1,1.5458814E0,-6.7127866E-1,-1.01810815E-2,1.6178836E0,-2.7859253E-1,-6.830373E-2,-4.883194E-1,2.785241E-1,-2.6763245E-1,1.1632565E0,1.7896593E-1,-4.539251E-2,8.776105E-3,1.1386051E-2,-5.367706E-1,9.2620224E-1,-1.509963E-1,-1.05272405E-1,-5.1955145E-2,1.2594104E-1,7.1776205E-1,-6.341556E-2,-4.393897E-1,1.1347033E-1,3.5801698E-2,2.9639095E-1,-5.1955145E-2,5.565833E-2,-4.091915E-1,8.776105E-3,8.3242285E-1,8.776105E-3,-4.7901087E-2,1.0046532E-1,-4.1866936E-2,-5.0226223E-2,-1.8353168E-2,1.2302555E-1,2.9639095E-2],"categories":[],"categories_nodes":[],"categories_segments":[],"categories_sizes":[],"default_left":[0,0,0,0,0,0,0,0,0,0,0,0,0,0,0,0,0,0,0,0,0,0,0,0,0,0,0,0,0,0,0,0,0,0,0,0,0,0,0,0,0],"id":0,"left_children":[1,3,5,7,9,11,13,-1,15,17,19,21,-1,-1,-1,-1,23,25,27,29,-1,-1,31,-1,33,-1,-1,35,-1,-1,37,-1,39,-1,-1,-1,-1,-1,-1,-1,-1],"loss_changes":[3.58262E2,8.109879E0,1.1858536E1,7.554474E-1,1.5829651E0,4.453827E0,3.0641228E-1,0E0,1.0553265E0,2.9374785E0,4.0494835E-1,2.0150757E-1,0E0,0E0,0E0,0E0,2.2109985E-2,8.540583E-2,1.2927665E0,1.8545927E0,0E0,0E0,4.2583966E-1,0E0,4.412384E-1,0E0,0E0,2.3230088E0,0E0,0E0,3.6329985E-2,0E0,8.562527E-1,0E0,0E0,0E0,0E0,0E0,0E0,0E0,0E0],"parents":[2147483647,0,0,1,1,2,2,3,3,4,4,5,5,6,6,8,8,9,9,10,10,11,11,16,16,17,17,18,18,19,19,22,22,24,24,27,27,30,30,32,32],"right_children":[2,4,6,8,10,12,14,-1,16,18,20,22,-1,-1,-1,-1,24,26,28,30,-1,-1,32,-1,34,-1,-1,36,-1,-1,38,-1,40,-1,-1,-1,-1,-1,-1,-1,-1],"split_conditions":[5.716905E0,5.167088E0,4.559811E0,4.0612125E0,3.8014631E0,7.048779E0,9.6589774E-2,-6.830373E-2,4.19073E0,5.4129896E0,4.8577876E0,5.20366E0,1.7896593E-1,-4.539251E-2,8.776105E-3,1.1386051E-2,4.613713E0,5.560183E0,5.3973413E0,4.0519314E0,-5.1955145E-2,1.2594104E-1,5.3002586E0,-6.341556E-2,4.6360908E0,1.1347033E-1,3.5801698E-2,3.343336E0,-5.1955145E-2,5.565833E-2,5.35506E0,8.776105E-3,5.748793E0,8.776105E-3,-4.7901087E-2,1.0046532E-1,-4.1866936E-2,-5.0226223E-2,-1.8353168E-2,1.2302555E-1,2.9639095E-2],"split_indices":[0,0,2,0,2,0,1,0,0,1,2,1,0,0,0,0,0,0,0,1,0,0,1,0,0,0,0,2,0,0,0,0,0,0,0,0,0,0,0,0,0],"split_type":[0,0,0,0,0,0,0,0,0,0,0,0,0,0,0,0,0,0,0,0,0,0,0,0,0,0,0,0,0,0,0,0,0,0,0,0,0,0,0,0,0],"sum_hessian":[6.1032886E2,5.244891E2,8.5839806E1,5.051948E2,1.9294268E1,8.268972E1,3.1500845E0,4.7211893E2,3.3075886E1,9.056493E0,1.0237775E1,2.4806915E1,5.78828E1,1.9688028E0,1.1812817E0,2.3625634E0,3.0713324E1,3.1500845E0,5.9064083E0,7.0876904E0,3.1500845E0,1.8900507E1,5.9064083E0,1.2600338E1,1.8112986E1,1.5750422E0,1.5750422E0,2.7563238E0,3.1500845E0,1.9688028E0,5.1188874E0,1.1812817E0,4.7251267E0,1.1812817E0,1.6931704E1,1.1812817E0,1.5750422E0,2.7563238E0,2.3625634E0,1.9688028E0,2.7563238E0],"tree_param":{"num_deleted":"0","num_feature":"64","num_nodes":"41","size_leaf_vector":"1"}},{"base_weights":[-4.1387E-2,-5.3598607E-1,1.2083071E0,-6.541933E-1,3.736276E-2,6.5887564E-1,1.4311291E0,-7.167838E-2,-4.5671415E-1,3.5684568E-1,-9.9915236E-2,8.076585E-1,1.8399669E-1,1.4373171E-1,4.5042943E-2,1.2530084E-2,-4.710351E-1,-2.2505324E-1,6.513483E-1,2.9575637E-1,-3.759559E-1,8.6514133E-1,-1.8942697E-2,-3.34635E-2,6.335596E-1,-6.0822576E-1,-4.0587816E-1,-5.9830662E-2,2.2699173E-1,1.6855067E-3,7.0272464E-1,-1.9989371E-1,5.3447384E-1,2.1520418E-3,-4.0828517E-1,9.336162E-1,5.297512E-1,3.2048988E-1,-2.3972589E-1,2.983126E-1,8.8400386E-2,-6.9575705E-2,-4.214255E-2,-4.395872E-2,-2.4752095E-3,-2.5527177E-2,8.8400386E-2,8.4048435E-2,2.2699174E-2,-6.086397E-2,4.34103E-2,7.036274E-2,8.218654E-3,-3.0819848E-2,-5.7813544E-2,9.782579E-2,5.2220482E-2,7.770998E-2,-1.8942697E-2,8.8400386E-2,-1.8942697E-2,-5.7161886E-2,1.8708505E-2,4.5042943E-2,1.6855067E-3],"categories":[],"categories_nodes":[],"categories_segments":[],"categories_sizes":[],"default_left":[0,0,0,0,0,0,0,0,0,0,0,0,0,0,0,0,0,0,0,0,0,0,0,0,0,0,0,0,0,0,0,0,0,0,0,0,0,0,0,0,0,0,0,0,0,0,0,0,0,0,0,0,0,0,0,0,0,0,0,0,0,0,0,0,0],"id":1,"left_children":[1,3,5,7,9,11,13,-1,15,17,19,21,23,-1,-1,-1,25,27,29,31,33,35,-1,37,39,41,43,-1,45,-1,47,49,51,-1,53,55,57,59,61,63,-1,-1,-1,-1,-1,-1,-1,-1,-1,-1,-1,-1,-1,-1,-1,-1,-1,-1,-1,-1,-1,-1,-1,-1,-1],"loss_changes":[4.179298E2,3.2852203E1,2.2530396E1,4.6369476E0,3.7082887E0,3.8910713E0,1.7526245E-1,0E0,8.8765335E-1,4.497059E0,6.593807E0,2.642229E0,1.4812804E0,0E0,0E0,0E0,6.22345E-1,1.7005751E0,5.459838E-1,3.0590303E0,4.637084E-1,4.4846344E-1,0E0,8.810636E-1,1.4931202E-1,1.8596172E-1,8.74732E-1,0E0,1.7843332E0,0E0,8.450899E-1,2.5546422E0,1.2513714E0,0E0,3.7922907E-1,9.136009E-2,1.7969213E0,1.4558408E0,1.1738975E0,1.470888E-1,0E0,0E0,0E0,0E0,0E0,0E0,0E0,0E0,0E0,0E0,0E0,0E0,0E0,0E0,0E0,0E0,0E0,0E0,0E0,0E0,0E0,0E0,0E0,0E0,0E0],"parents":[2147483647,0,0,1,1,2,2,3,3,4,4,5,5,6,6,8,8,9,9,10,10,11,11,12,12,16,16,17,17,18,18,19,19,20,20,21,21,23,23,24,24,25,25,26,26,28,28,30,30,31,31,32,32,34,34,35,35,36,36,37,37,38,38,39,39],"right_children":[2,4,6,8,10,12,14,-1,16,18,20,22,24,-1,-1,-1,26,28,30,32,34,36,-1,38,40,42,44,-1,46,-1,48,50,52,-1,54,56,58,60,62,64,-1,-1,-1,-1,-1,-1,-1,-1,-1,-1,-1,-1,-1,-1,-1,-1,-1,-1,-1,-1,-1,-1,-1,-1,-1],"split_conditions":[5.7366905E0,5.0304127E0,6.3208275E0,4.1137676E0,4.6296096E0,5.044619E0,4.8265324E0,-7.167838E-2,4.1243496E0,3.343336E0,8.506335E-3,5.594388E0,5.3153415E0,1.4373171E-1,4.5042943E-2,1.2530084E-2,4.4274526E0,5.394079E0,5.10618E0,5.3587317E0,4.770452E0,4.8577876E0,-1.8942697E-2,5.8544426E0,5.929497E0,6.285138E0,6.260573E0,-5.9830662E-2,5.937039E0,1.6855067E-3,4.329437E0,5.646705E0,5.8452225E0,2.1520418E-3,2.522999E0,6.2699885E0,3.729175E-1,5.1113887E0,5.145856E0,5.771205E0,8.8400386E-2,-6.9575705E-2,-4.214255E-2,-4.395872E-2,-2.4752095E-3,-2.5527177E-2,8.8400386E-2,8.4048435E-2,2.2699174E-2,-6.086397E-2,4.34103E-2,7.036274E-2,8.218654E-3,-3.0819848E-2,-5.7813544E-2,9.782579E-2,5.2220482E-2,7.770998E-2,-1.8942697E-2,8.8400386E-2,-1.8942697E-2,-5.7161886E-2,1.8708505E-2,4.5042943E-2,1.6855067E-3],"split_indices":[1,1,1,1,2,2,2,0,1,2,0,0,2,0,0,0,1,1,1,2,2,2,0,1,1,2,0,0,0,0,2,1,2,0,0,1,0,2,2,1,0,0,0,0,0,0,0,0,0,0,0,0,0,0,0,0,0,0,0,0,0,0,0,0,0],"split_type":[0,0,0,0,0,0,0,0,0,0,0,0,0,0,0,0,0,0,0,0,0,0,0,0,0,0,0,0,0,0,0,0,0,0,0,0,0,0,0,0,0,0,0,0,0,0,0,0,0,0,0,0,0,0,0,0,0,0,0,0,0,0,0,0,0],"sum_hessian":[6.7410724E2,4.833715E2,1.9073578E2,4.0063223E2,8.2739265E1,5.6175606E1,1.3456017E2,3.0221603E2,9.8416176E1,2.4386309E1,5.8352955E1,4.224057E1,1.3935034E1,1.3325375E2,1.3064094E0,2.177349E0,9.623883E1,8.273927E0,1.6112383E1,2.395084E1,3.4402115E1,4.006322E1,2.177349E0,1.0015805E1,3.9192283E0,2.8305538E1,6.793329E1,4.354698E0,3.9192283E0,1.3064094E0,1.4805973E1,7.8384566E0,1.6112383E1,2.6128187E0,3.1789295E1,3.1789295E1,8.273927E0,3.4837584E0,6.5320473E0,2.6128187E0,1.3064094E0,1.7418793E1,1.0886745E1,6.2272182E1,5.6611075E0,2.6128187E0,1.3064094E0,1.0886745E1,3.9192283E0,4.790168E0,3.0482886E0,1.1322215E1,4.790168E0,2.177349E1,1.0015805E1,2.7434597E1,4.354698E0,6.096577E0,2.177349E0,1.3064094E0,2.177349E0,3.4837584E0,3.0482886E0,1.3064094E0,1.3064094E0],"tree_param":{"num_deleted":"0","num_feature":"64","num_nodes":"65","size_leaf_vector":"1"}},{"base_weights":[2.9597393E-1,6.530716E-1,-6.001615E-1,1.0332876E0,-5.491159E-1,-2.4825741E-1,-7.412831E-1,1.1484563E0,6.014958E-1,-1.6210264E-1,-7.97611E-2,-1.1173592E-1,-6.141725E-1,-6.8699443E-1,-8.155329E-2,1.1899561E0,9.81576E-1,2.5711927E-1,7.947714E-1,7.4431187E-1,-4.643342E-1,-2.2374325E-1,1.7211983E-1,-6.581589E-1,-9.394468E-3,-6.9378644E-2,-3.0724017E-2,1.2014868E-1,7.8464454E-1,7.064214E-1,1.0228113E-1,8.396765E-2,3.3779484E-1,9.191912E-1,2.5572392E-1,1.0715609E-1,1.539778E-1,-2.9193035E-1,-6.3870114E-1,-1.9533442E-2,-3.7952563E-1,5.51845E-1,-1.3945197E-1,-4.2921066E-1,-7.5572535E-2,1.0103816E-1,3.5296474E-2,9.147853E-2,3.2525856E-2,4.6317916E-2,-3.9328006E-3,6.678201E-2,2.0432072E-2,9.528843E-2,1.2250394E-2,5.014836E-3,6.5062106E-2,-1.984826E-2,7.218789E-2,-1.9104836E-4,-5.8089316E-2,-7.64448E-2,-4.3053E-2,-9.564452E-3,2.776948E-2,-2.9459238E-2,-6.304381E-2,1.3819742E-2,8.626297E-2,-5.0254997E-2,3.9440926E-2,-6.735831E-2,1.2250394E-2],"categories":[],"categories_nodes":[],"categories_segments":[],"categories_sizes":[],"default_left":[0,0,0,0,0,0,0,0,0,0,0,0,0,0,0,0,0,0,0,0,0,0,0,0,0,0,0,0,0,0,0,0,0,0,0,0,0,0,0,0,0,0,0,0,0,0,0,0,0,0,0,0,0,0,0,0,0,0,0,0,0,0,0,0,0,0,0,0,0,0,0,0,0],"id":2,"left_children":[1,3,5,7,9,11,13,15,17,19,-1,21,23,25,-1,27,29,31,33,35,37,39,41,43,-1,-1,-1,-1,45,47,-1,49,51,53,55,-1,57,59,61,63,65,67,69,71,-1,-1,-1,-1,-1,-1,-1,-1,-1,-1,-1,-1,-1,-1,-1,-1,-1,-1,-1,-1,-1,-1,-1,-1,-1,-1,-1,-1,-1],"loss_changes":[2.3512689E2,2.4053796E2,1.022168E1,1.9160858E1,1.2064938E1,3.0026047E0,4.055786E-2,1.0068665E0,5.5301075E0,1.4271758E1,0E0,1.5009297E0,3.1534386E-1,2.5283813E-2,0E0,2.1063232E-1,5.1872253E-2,4.249251E-1,3.43396E0,2.364955E0,9.781046E-1,1.0556599E0,1.683599E0,1.1397839E-2,0E0,0E0,0E0,0E0,5.8948183E-1,6.656904E-1,0E0,5.626517E-1,8.240564E-1,1.0660095E0,9.126795E-1,0E0,1.3119036E0,1.7857075E0,1.5301037E-1,3.7754822E-1,2.170937E-1,6.935401E-1,1.7988864E0,1.0001329E0,0E0,0E0,0E0,0E0,0E0,0E0,0E0,0E0,0E0,0E0,0E0,0E0,0E0,0E0,0E0,0E0,0E0,0E0,0E0,0E0,0E0,0E0,0E0,0E0,0E0,0E0,0E0,0E0,0E0],"parents":[2147483647,0,0,1,1,2,2,3,3,4,4,5,5,6,6,7,7,8,8,9,9,11,11,12,12,13,13,15,15,16,16,17,17,18,18,19,19,20,20,21,21,22,22,23,23,28,28,29,29,31,31,32,32,33,33,34,34,36,36,37,37,38,38,39,39,40,40,41,41,42,42,43,43],"right_children":[2,4,6,8,10,12,14,16,18,20,-1,22,24,26,-1,28,30,32,34,36,38,40,42,44,-1,-1,-1,-1,46,48,-1,50,52,54,56,-1,58,60,62,64,66,68,70,72,-1,-1,-1,-1,-1,-1,-1,-1,-1,-1,-1,-1,-1,-1,-1,-1,-1,-1,-1,-1,-1,-1,-1,-1,-1,-1,-1,-1,-1],"split_conditions":[5.771205E0,5.050079E0,6.3208275E0,4.9245267E0,6.6453567E0,3.2081144E0,7.17222E0,4.1137676E0,8.506335E-3,3.5839736E0,-7.97611E-2,6.801862E-1,6.235E0,7.141129E0,-8.155329E-2,4.248688E0,4.2677174E0,5.20366E0,4.226416E0,6.0682607E0,4.9975395E0,6.050725E0,6.1719728E0,5.8703794E0,-9.394468E-3,-6.9378644E-2,-3.0724017E-2,1.2014868E-1,3.0419662E0,4.218405E0,1.0228113E-1,4.942604E0,5.3433776E0,5.716729E0,5.646705E0,1.0715609E-1,6.5469584E0,5.716905E0,5.436057E0,8.506335E-3,8.506335E-3,6.0166836E0,6.2452793E0,5.8369293E0,-7.5572535E-2,1.0103816E-1,3.5296474E-2,9.147853E-2,3.2525856E-2,4.6317916E-2,-3.9328006E-3,6.678201E-2,2.0432072E-2,9.528843E-2,1.2250394E-2,5.014836E-3,6.5062106E-2,-1.984826E-2,7.218789E-2,-1.9104836E-4,-5.8089316E-2,-7.64448E-2,-4.3053E-2,-9.564452E-3,2.776948E-2,-2.9459238E-2,-6.304381E-2,1.3819742E-2,8.626297E-2,-5.0254997E-2,3.9440926E-2,-6.735831E-2,1.2250394E-2],"split_indices":[1,0,1,1,0,0,1,1,0,1,0,0,1,1,0,0,1,1,0,0,1,1,1,1,0,0,0,0,1,1,0,1,1,1,1,0,0,0,1,0,0,1,1,1,0,0,0,0,0,0,0,0,0,0,0,0,0,0,0,0,0,0,0,0,0,0,0,0,0,0,0,0,0],"split_type":[0,0,0,0,0,0,0,0,0,0,0,0,0,0,0,0,0,0,0,0,0,0,0,0,0,0,0,0,0,0,0,0,0,0,0,0,0,0,0,0,0,0,0,0,0,0,0,0,0,0,0,0,0,0,0,0,0,0,0,0,0,0,0,0,0,0,0,0,0,0,0,0,0],"sum_hessian":[7.325288E2,5.239952E2,2.0853362E2,3.981976E2,1.2579755E2,6.0479588E1,1.4805403E2,3.1304236E2,8.515526E1,4.9835182E1,7.5962364E1,4.4996815E1,1.5482775E1,9.144514E1,5.6608894E1,2.4578905E2,6.72533E1,3.1449387E1,5.3705875E1,1.2095918E1,3.773926E1,3.241706E1,1.2579755E1,1.4031264E1,1.4515102E0,8.9025955E1,2.4191835E0,2.3707999E2,8.709061E0,1.1128244E1,5.6125057E1,1.0644407E1,2.080498E1,4.3061466E1,1.0644407E1,7.2575507E0,4.838367E0,2.0321142E1,1.7418121E1,1.4515101E1,1.7901958E1,5.3222036E0,7.2575507E0,5.806041E0,8.2252245E0,4.838367E0,3.8706937E0,6.2898774E0,4.838367E0,1.9353468E0,8.709061E0,4.838367E0,1.5966612E1,4.112612E1,1.9353468E0,7.7413874E0,2.9030204E0,3.386857E0,1.4515102E0,1.0644407E1,9.676734E0,9.192898E0,8.2252245E0,1.2095918E1,2.4191835E0,1.4998938E1,2.9030204E0,2.9030204E0,2.4191835E0,4.3545303E0,2.9030204E0,3.8706937E0,1.9353468E0],"tree_param":{"num_deleted":"0","num_feature":"64","num_nodes":"73","size_leaf_vector":"1"}},{"base_weights":[-3.045163E-1,-6.2297624E-1,1.3666598E0,-6.6075355E-2,-2.9813612E-1,1.4065349E0,-1.7462586E-1,1.1852848E-1,-4.0648037E-1,1.45996E0,6.8696785E-1,9.7806575E-3,-3.6590606E-2,7.326545E-1,-2.390278E-1,9.367907E-3,-4.2250496E-1,1.0218173E-1,1.502064E-1,7.89423E-2,5.338786E-3,1.9187039E-2,1.0756504E-1,2.909152E-1,-5.5331904E-2,-5.964459E-2,-3.6481807E-1,5.1706202E-2,-1.9998383E-3,6.142034E-3,-4.690422E-2],"categories":[],"categories_nodes":[],"categories_segments":[],"categories_sizes":[],"default_left":[0,0,0,0,0,0,0,0,0,0,0,0,0,0,0,0,0,0,0,0,0,0,0,0,0,0,0,0,0,0,0],"id":3,"left_children":[1,3,5,-1,7,9,11,13,15,17,19,-1,-1,21,23,-1,25,-1,-1,-1,-1,-1,-1,27,-1,-1,29,-1,-1,-1,-1],"loss_changes":[3.212657E2,6.0170135E0,6.1872864E0,0E0,2.511919E0,2.6241302E0,2.0919514E-1,2.8182454E0,3.8854074E-1,6.9000244E-2,5.0375485E-1,0E0,0E0,6.6081953E-1,1.5536501E0,0E0,2.0754099E-1,0E0,0E0,0E0,0E0,0E0,0E0,2.7529544E-1,0E0,0E0,1.5566516E0,0E0,0E0,0E0,0E0],"parents":[2147483647,0,0,1,1,2,2,4,4,5,5,6,6,7,7,8,8,9,9,10,10,13,13,14,14,16,16,23,23,26,26],"right_children":[2,4,6,-1,8,10,12,14,16,18,20,-1,-1,22,24,-1,26,-1,-1,-1,-1,-1,-1,28,-1,-1,30,-1,-1,-1,-1],"split_conditions":[5.716905E0,4.0612125E0,4.559811E0,-6.6075355E-2,3.8014631E0,5.1473513E0,6.1458926E0,5.4129896E0,4.113199E0,6.514792E0,6.18984E0,9.7806575E-3,-3.6590606E-2,4.9355445E0,3.343336E0,9.367907E-3,3.0419662E0,1.0218173E-1,1.502064E-1,7.89423E-2,5.338786E-3,1.9187039E-2,1.0756504E-1,5.4414E0,-5.5331904E-2,-5.964459E-2,3.895472E0,5.1706202E-2,-1.9998383E-3,6.142034E-3,-4.690422E-2],"split_indices":[0,0,2,0,2,1,0,1,0,0,0,0,0,1,2,0,1,0,0,0,0,0,0,0,0,0,1,0,0,0,0],"split_type":[0,0,0,0,0,0,0,0,0,0,0,0,0,0,0,0,0,0,0,0,0,0,0,0,0,0,0,0,0,0,0],"sum_hessian":[6.010531E2,5.053757E2,9.5677376E1,4.5179962E2,5.3576088E1,9.3349724E1,2.3276534E0,1.1036911E1,4.2539177E1,8.594007E1,7.4096565E0,1.1617274E0,1.165926E0,3.6752942E0,7.361617E0,1.170163E0,4.1369015E1,9.74987E0,7.61902E1,6.166508E0,1.2431481E0,2.0315878E0,1.6437063E0,2.7682695E0,4.593347E0,7.9769855E0,3.339203E1,1.2187533E0,1.5495163E0,6.641487E0,2.6750542E1],"tree_param":{"num_deleted":"0","num_feature":"64","num_nodes":"31","size_leaf_vector":"1"}},{"base_weights":[-4.675657E-2,-5.138706E-1,1.0101343E0,-6.3126236E-1,2.4154453E-2,5.8221E-1,1.2092024E0,-6.7744917E-1,-3.6869022E-1,4.0519407E-1,-1.4241123E-1,7.476772E-1,1.8972126E-1,1.3016583E0,1.050813E0,-6.993308E-2,-5.766819E-1,-4.2899814E-1,2.643524E-1,6.9237214E-1,-1.4344317E-1,1.9092648E-1,-3.649312E-1,8.1203413E-1,-2.50306E-1,3.920768E-1,-2.3319145E-1,5.3375363E-2,1.312632E-1,1.0794665E0,-4.4521308E-3,1.4024307E-1,-6.191888E-2,-5.3310674E-3,-4.6460184E-1,8.9400016E-2,-1.1905722E-1,2.939316E-1,7.7512455E-1,1.5144323E-1,-4.1119367E-1,-3.3744127E-1,3.8250396E-1,-2.5634882E-1,-5.211832E-1,8.6827105E-1,1.9847406E-1,2.514782E-3,-4.1575488E-2,2.7521405E-1,7.229056E-2,-4.2926642E-1,2.6355674E-2,1.1224005E0,6.8609214E-1,3.0299595E-2,-7.442493E-3,1.56242745E-2,-1.651913E-2,-5.2157093E-2,-3.2366727E-2,-4.1485492E-2,1.3422198E-2,-1.1425646E-2,5.936821E-2,2.659516E-2,8.2740776E-2,-4.5423685E-3,4.2373016E-2,-1.4646072E-4,-5.471312E-2,3.2348041E-3,-5.609069E-2,6.184825E-2,-7.471493E-3,-3.447978E-2,3.2792285E-2,-5.7900067E-2,1.5008528E-3,2.397727E-2,8.911291E-2,-8.6439133E-4,4.425811E-2,4.4915486E-2,-2.6829598E-2,-5.6496616E-2,1.9178322E-3,1.1368101E-1,3.7376452E-2,-5.5383383E-3,1.0958029E-1],"categories":[],"categories_nodes":[],"categories_segments":[],"categories_sizes":[],"default_left":[0,0,0,0,0,0,0,0,0,0,0,0,0,0,0,0,0,0,0,0,0,0,0,0,0,0,0,0,0,0,0,0,0,0,0,0,0,0,0,0,0,0,0,0,0,0,0,0,0,0,0,0,0,0,0,0,0,0,0,0,0,0,0,0,0,0,0,0,0,0,0,0,0,0,0,0,0,0,0,0,0,0,0,0,0,0,0,0,0,0,0],"id":4,"left_children":[1,3,5,7,9,11,13,15,17,19,21,23,25,27,29,-1,31,33,35,37,39,41,43,45,47,49,51,-1,-1,53,-1,55,-1,57,59,-1,61,63,65,67,69,71,73,75,77,79,81,-1,-1,83,-1,85,-1,87,89,-1,-1,-1,-1,-1,-1,-1,-1,-1,-1,-1,-1,-1,-1,-1,-1,-1,-1,-1,-1,-1,-1,-1,-1,-1,-1,-1,-1,-1,-1,-1,-1,-1,-1,-1,-1],"loss_changes":[3.297434E2,2.926654E1,1.6736511E1,4.361252E0,5.383616E0,4.2049274E0,6.6485596E-1,3.070221E-1,2.3685617E0,4.161835E0,4.45562E0,3.2053642E0,1.9047654E0,2.609253E-3,1.8165817E0,0E0,2.0120602E0,8.1679535E-1,1.4961766E0,3.3588028E-1,8.271733E-1,2.5915773E0,4.7383308E-1,1.350914E0,1.743391E-1,3.6955E-1,8.4212387E-1,0E0,0E0,1.5802765E-1,0E0,1.7457843E-1,0E0,1.6069317E-1,2.3336315E-1,0E0,3.898564E-1,6.246723E-1,1.4055443E-1,3.0555102E-1,2.9699284E-1,5.9698975E-1,2.023106E0,1.3063986E0,4.337554E-1,3.6304092E-1,2.5676554E-1,0E0,0E0,1.3004379E0,0E0,3.6054504E-1,0E0,9.259796E-2,2.4849172E0,0E0,0E0,0E0,0E0,0E0,0E0,0E0,0E0,0E0,0E0,0E0,0E0,0E0,0E0,0E0,0E0,0E0,0E0,0E0,0E0,0E0,0E0,0E0,0E0,0E0,0E0,0E0,0E0,0E0,0E0,0E0,0E0,0E0,0E0,0E0,0E0],"parents":[2147483647,0,0,1,1,2,2,3,3,4,4,5,5,6,6,7,7,8,8,9,9,10,10,11,11,12,12,13,13,14,14,16,16,17,17,18,18,19,19,20,20,21,21,22,22,23,23,24,24,25,25,26,26,29,29,31,31,33,33,34,34,36,36,37,37,38,38,39,39,40,40,41,41,42,42,43,43,44,44,45,45,46,46,49,49,51,51,53,53,54,54],"right_children":[2,4,6,8,10,12,14,16,18,20,22,24,26,28,30,-1,32,34,36,38,40,42,44,46,48,50,52,-1,-1,54,-1,56,-1,58,60,-1,62,64,66,68,70,72,74,76,78,80,82,-1,-1,84,-1,86,-1,88,90,-1,-1,-1,-1,-1,-1,-1,-1,-1,-1,-1,-1,-1,-1,-1,-1,-1,-1,-1,-1,-1,-1,-1,-1,-1,-1,-1,-1,-1,-1,-1,-1,-1,-1,-1,-1],"split_conditions":[5.68797E0,4.9776773E0,6.3208275E0,4.4274526E0,4.5267344E0,4.97895E0,3.8739576E0,3.7195544E0,6.260573E0,5.716905E0,8.506335E-3,5.594388E0,6.6391677E-1,6.638699E0,7.048973E0,-6.993308E-2,3.7701576E0,4.4756107E0,6.514792E0,5.1853013E0,2.966917E0,5.3587317E0,2.522999E0,6.2699885E0,2.8533044E0,5.329291E0,2.0016222E0,5.3375363E-2,1.312632E-1,6.82516E0,-4.4521308E-3,3.736544E0,-6.191888E-2,8.506335E-3,6.1466646E0,8.9400016E-2,6.9010577E0,5.050079E0,3.343336E0,2.7358656E0,5.8029313E0,5.145856E0,5.787267E0,2.1333518E0,4.428176E0,5.771205E0,4.7513394E0,2.514782E-3,-4.1575488E-2,5.2053924E0,7.229056E-2,5.293861E0,2.6355674E-2,3.7390258E0,4.098945E0,3.0299595E-2,-7.442493E-3,1.56242745E-2,-1.651913E-2,-5.2157093E-2,-3.2366727E-2,-4.1485492E-2,1.3422198E-2,-1.1425646E-2,5.936821E-2,2.659516E-2,8.2740776E-2,-4.5423685E-3,4.2373016E-2,-1.4646072E-4,-5.471312E-2,3.2348041E-3,-5.609069E-2,6.184825E-2,-7.471493E-3,-3.447978E-2,3.2792285E-2,-5.7900067E-2,1.5008528E-3,2.397727E-2,8.911291E-2,-8.6439133E-4,4.425811E-2,4.4915486E-2,-2.6829598E-2,-5.6496616E-2,1.9178322E-3,1.1368101E-1,3.7376452E-2,-5.5383383E-3,1.0958029E-1],"split_indices":[1,1,1,1,2,2,2,1,0,0,0,0,0,1,1,0,1,1,0,1,2,2,0,1,2,2,0,0,0,1,0,1,0,0,2,0,0,0,2,2,0,2,2,0,0,1,2,0,0,2,0,2,0,0,2,0,0,0,0,0,0,0,0,0,0,0,0,0,0,0,0,0,0,0,0,0,0,0,0,0,0,0,0,0,0,0,0,0,0,0,0],"split_type":[0,0,0,0,0,0,0,0,0,0,0,0,0,0,0,0,0,0,0,0,0,0,0,0,0,0,0,0,0,0,0,0,0,0,0,0,0,0,0,0,0,0,0,0,0,0,0,0,0,0,0,0,0,0,0,0,0,0,0,0,0,0,0,0,0,0,0,0,0,0,0,0,0,0,0,0,0,0,0,0,0,0,0,0,0,0,0,0,0,0,0],"sum_hessian":[6.658664E2,4.6213184E2,2.0373457E2,3.7921707E2,8.291475E1,6.5931145E1,1.3780344E2,3.2114682E2,5.8070244E1,2.4784502E1,5.8130253E1,4.574204E1,2.0189104E1,8.245455E1,5.534888E1,2.589713E2,6.2175514E1,5.3313557E1,4.756687E0,1.6096815E1,8.687685E0,2.3327436E1,3.4802814E1,4.3146008E1,2.59603E0,1.3704621E1,6.484483E0,1.8610771E0,8.0593475E1,5.3952003E1,1.3968793E0,3.3513849E0,5.882413E1,4.222116E0,4.9091442E1,1.2962437E0,3.4604437E0,3.5510366E0,1.2545779E1,4.3410583E0,4.346627E0,6.004829E0,1.7322609E1,2.209158E1,1.2711236E1,3.914314E1,4.0028706E0,1.2923743E0,1.3036557E0,1.1480954E1,2.2236667E0,4.746719E0,1.7377639E0,4.697207E1,6.9799333E0,1.6721575E0,1.6792274E0,2.111058E0,2.111058E0,3.3036503E1,1.605494E1,1.3019719E0,2.1584718E0,1.7655756E0,1.785461E0,1.735074E0,1.0810705E1,3.0030162E0,1.3380418E0,1.3346462E0,3.0119812E0,2.5840333E0,3.4207957E0,1.1193003E1,6.129606E0,1.9542969E1,2.5486107E0,1.1401929E1,1.3093071E0,1.7768561E0,3.736628E1,2.687333E0,1.3155372E0,8.828994E0,2.6519606E0,3.4445581E0,1.3021605E0,4.557632E1,1.3957481E0,2.791973E0,4.1879597E0],"tree_param":{"num_deleted":"0","num_feature":"64","num_nodes":"91","size_leaf_vector":"1"}},{"base_weights":[2.7237165E-1,4.295142E-1,-6.094393E-1,4.4444108E-1,-6.1898524E-1,-3.0375648E-1,-7.6843254E-2,3.3762395E-1,6.1776817E-1,-6.8153017E-3,-7.077241E-2,-6.32703E-2,-2.581062E-1,3.2882988E-1,9.093378E-2,7.8779835E-1,2.8342882E-1,-8.2876764E-2,-3.808245E-1,3.219973E-1,8.499247E-2,8.081832E-2,5.844554E-1,3.6627862E-1,-5.122124E-2,-1.380252E-1,1.3619165E-1,-4.189711E-1,-2.179028E-2,3.1803798E-2,7.2789945E-2,3.341496E-2,7.4277066E-2,3.451347E-2,6.164682E-2,-3.1302582E-2,2.1513196E-2,-3.3962305E-3,-5.267001E-2,3.138369E-2,-9.695932E-3,-2.7978798E-2,-5.6536753E-2],"categories":[],"categories_nodes":[],"categories_segments":[],"categories_sizes":[],"default_left":[0,0,0,0,0,0,0,0,0,0,0,0,0,0,0,0,0,0,0,0,0,0,0,0,0,0,0,0,0,0,0,0,0,0,0,0,0,0,0,0,0,0,0],"id":5,"left_children":[1,3,5,7,9,11,-1,13,15,-1,-1,-1,17,19,-1,21,23,25,27,29,-1,-1,31,33,35,37,39,41,-1,-1,-1,-1,-1,-1,-1,-1,-1,-1,-1,-1,-1,-1,-1],"loss_changes":[1.0579986E2,1.0401398E1,5.385376E0,1.161306E1,4.1611862E-1,4.555335E-1,0E0,1.6982765E0,1.3548424E1,0E0,0E0,0E0,7.829497E-1,1.1248817E0,0E0,1.9097137E-1,2.326365E0,2.2271866E-1,4.5422792E-2,3.9419556E-1,0E0,0E0,4.7274113E-1,1.4079857E-1,1.2802455E0,5.476018E-1,1.9187471E-1,1.8293285E-1,0E0,0E0,0E0,0E0,0E0,0E0,0E0,0E0,0E0,0E0,0E0,0E0,0E0,0E0,0E0],"parents":[2147483647,0,0,1,1,2,2,3,3,4,4,5,5,7,7,8,8,12,12,13,13,15,15,16,16,17,17,18,18,19,19,22,22,23,23,24,24,25,25,26,26,27,27],"right_children":[2,4,6,8,10,12,-1,14,16,-1,-1,-1,18,20,-1,22,24,26,28,30,-1,-1,32,34,36,38,40,42,-1,-1,-1,-1,-1,-1,-1,-1,-1,-1,-1,-1,-1,-1,-1],"split_conditions":[5.35506E0,1.136994E-3,6.7403536E0,8.506335E-3,1.9257632E-1,5.4414E0,-7.6843254E-2,4.742747E-3,3.4875019E0,-6.8153017E-3,-7.077241E-2,-6.32703E-2,5.861707E0,4.0564314E-3,9.093378E-2,3.0771303E0,5.050079E0,5.7331185E0,6.5595636E0,1.2368672E-3,8.499247E-2,8.081832E-2,3.2449956E0,5.0093446E0,5.2430067E0,5.716905E0,5.8029313E0,6.18984E0,-2.179028E-2,3.1803798E-2,7.2789945E-2,3.341496E-2,7.4277066E-2,3.451347E-2,6.164682E-2,-3.1302582E-2,2.1513196E-2,-3.3962305E-3,-5.267001E-2,3.138369E-2,-9.695932E-3,-2.7978798E-2,-5.6536753E-2],"split_indices":[0,28,0,0,0,0,0,49,0,0,0,0,0,19,0,0,0,0,0,7,0,0,0,0,0,0,0,0,0,0,0,0,0,0,0,0,0,0,0,0,0,0,0],"split_type":[0,0,0,0,0,0,0,0,0,0,0,0,0,0,0,0,0,0,0,0,0,0,0,0,0,0,0,0,0,0,0,0,0,0,0,0,0,0,0,0,0,0,0],"sum_hessian":[7.6062286E2,6.4601337E2,1.14609474E2,6.3751355E2,8.499797E0,4.021055E1,7.4398926E1,3.9625778E2,2.4125578E2,1.4246331E0,7.0751634E0,3.3331034E0,3.6877445E1,3.918062E2,4.4515805E0,1.5902594E2,8.222983E1,1.5879069E1,2.0998377E1,3.8833234E2,3.473864E0,1.4183295E2,1.7192997E1,6.583617E1,1.6393667E1,1.2981134E1,2.897935E0,1.5741129E1,5.2572474E0,3.863473E2,1.9850652E0,7.8664074E0,9.326591E0,6.289988E1,2.9362843E0,8.179058E0,8.214609E0,1.1097339E1,1.8837957E0,1.4483346E0,1.4496002E0,9.561713E0,6.179416E0],"tree_param":{"num_deleted":"0","num_feature":"64","num_nodes":"43","size_leaf_vector":"1"}},{"base_weights":[-3.201389E-1,-6.023516E-1,1.124972E0,-6.3904345E-1,-1.6508408E-1,6.8795305E-1,1.2705022E0,-6.45178E-2,-4.8793104E-1,-3.359899E-1,2.2746759E-2,-4.499362E-2,8.0002636E-1,1.2923545E-1,6.867148E-2,-5.2621353E-2,2.8453933E-3,-4.081327E-1,1.8342954E-1,3.1710324E-1,-3.7207934E-1,3.420578E-1,9.1041917E-1,-1.4354824E-1,-5.270744E-2,6.2541105E-2,-3.4289848E-2,-3.5556305E-2,4.2359778E-1,-5.4489117E-2,-9.1444924E-2,6.7768085E-1,-1.9318616E-2,1.0255007E-1,4.6667397E-1,-6.3219946E-4,-3.9291255E-2,6.138843E-2,-2.4965315E-3,1.1504407E-2,-3.6810715E-2,2.7627114E-2,8.5355885E-2,-1.5261838E-2,8.6745754E-2],"categories":[],"categories_nodes":[],"categories_segments":[],"categories_sizes":[],"default_left":[0,0,0,0,0,0,0,0,0,0,0,0,0,0,0,0,0,0,0,0,0,0,0,0,0,0,0,0,0,0,0,0,0,0,0,0,0,0,0,0,0,0,0,0,0],"id":6,"left_children":[1,3,5,7,9,11,13,-1,15,17,19,-1,21,-1,-1,-1,-1,23,25,27,29,31,33,35,-1,-1,-1,-1,37,-1,39,41,-1,-1,43,-1,-1,-1,-1,-1,-1,-1,-1,-1,-1],"loss_changes":[2.3535666E2,7.628937E0,5.127472E0,9.715271E-2,1.2489433E0,3.6443748E0,5.340576E-4,0E0,4.3881273E-1,8.3591413E-1,2.3678238E0,0E0,8.9210033E-1,0E0,0E0,0E0,0E0,4.9529886E-1,9.5112383E-1,9.837469E-1,3.734691E-1,1.249279E0,4.7024155E-1,2.3708151E-1,0E0,0E0,0E0,0E0,9.112958E-1,0E0,3.0102807E-1,4.998052E-2,0E0,0E0,1.5375426E0,0E0,0E0,0E0,0E0,0E0,0E0,0E0,0E0,0E0,0E0],"parents":[2147483647,0,0,1,1,2,2,3,3,4,4,5,5,6,6,8,8,9,9,10,10,12,12,17,17,18,18,19,19,20,20,21,21,22,22,23,23,28,28,30,30,31,31,34,34],"right_children":[2,4,6,8,10,12,14,-1,16,18,20,-1,22,-1,-1,-1,-1,24,26,28,30,32,34,36,-1,-1,-1,-1,38,-1,40,42,-1,-1,44,-1,-1,-1,-1,-1,-1,-1,-1,-1,-1],"split_conditions":[5.716905E0,4.553794E0,6.7403536E0,3.796488E0,5.167088E0,9.6589774E-2,4.4274526E0,-6.45178E-2,6.2699885E0,5.6772327E0,5.4414E0,-4.499362E-2,3.5839736E0,1.2923545E-1,6.867148E-2,-5.2621353E-2,2.8453933E-3,4.716148E0,5.7976904E0,3.5839736E0,5.594388E0,3.1524065E0,5.273895E0,4.911773E0,-5.270744E-2,6.2541105E-2,-3.4289848E-2,-3.5556305E-2,5.579046E0,-5.4489117E-2,5.6875196E0,2.834657E0,-1.9318616E-2,1.0255007E-1,5.427121E0,-6.3219946E-4,-3.9291255E-2,6.138843E-2,-2.4965315E-3,1.1504407E-2,-3.6810715E-2,2.7627114E-2,8.5355885E-2,-1.5261838E-2,8.6745754E-2],"split_indices":[0,0,0,0,0,1,1,0,1,1,0,0,1,0,0,0,0,0,1,1,0,1,1,1,0,0,0,0,1,0,0,1,0,0,1,0,0,0,0,0,0,0,0,0,0],"split_type":[0,0,0,0,0,0,0,0,0,0,0,0,0,0,0,0,0,0,0,0,0,0,0,0,0,0,0,0,0,0,0,0,0,0,0,0,0,0,0,0,0,0,0,0,0],"sum_hessian":[5.744354E2,4.810712E2,9.336421E1,4.4340308E2,3.7668137E1,2.4754654E1,6.860956E1,4.2296292E2,2.0440155E1,1.9309649E1,1.835849E1,1.9492371E0,2.2805416E1,6.4964096E1,3.645465E0,1.9011679E1,1.428476E0,1.7142902E1,2.166746E0,1.0630178E1,7.7283115E0,5.2255573E0,1.7579859E1,6.000883E0,1.1142018E1,1.0754167E0,1.0913293E0,1.1332545E0,9.496924E0,4.200218E0,3.5280929E0,3.0481246E0,2.177433E0,1.2918536E1,4.661323E0,4.5321655E0,1.4687176E0,6.4094095E0,3.0875146E0,2.3547664E0,1.1733266E0,1.7118797E0,1.3362448E0,2.0746953E0,2.5866277E0],"tree_param":{"num_deleted":"0","num_feature":"64","num_nodes":"45","size_leaf_vector":"1"}},{"base_weights":[-1.4371384E-2,-5.0262946E-1,9.699807E-1,-6.1705893E-1,6.1196238E-2,5.8888704E-1,1.1316249E0,-6.733583E-2,-4.3423072E-1,3.8088828E-1,-8.095428E-2,7.047631E-1,1.9377716E-1,1.2066394E-1,9.7800255E-1,1.5513559E-2,-4.5013905E-1,-3.0307043E-1,6.05834E-1,2.5980267E-1,-3.9635268E-1,7.330689E-1,-8.490026E-3,3.8879827E-1,-1.0100926E-1,1.001826E0,1.8561633E-2,-5.753553E-1,-3.8132247E-1,-5.752633E-2,4.3385588E-2,8.7984316E-2,6.2287312E-2,-6.623395E-2,4.350035E-1,-6.189701E-2,-2.9309228E-1,7.494342E-1,1.9531151E-2,9.396111E-2,1.6206984E-1,-5.3931512E-2,3.0661592E-1,1.0249361E-1,4.3417802E-1,-6.6070184E-2,-3.9245676E-2,1.2812741E-2,-4.142183E-2,-4.9466165E-3,2.5931343E-2,-4.1365523E-2,3.0660152E-2,5.3884786E-2,-4.458091E-2,4.945552E-3,-4.9940284E-2,9.072317E-2,6.0726035E-2,-3.1840235E-2,4.9385887E-2,7.3360035E-4,4.2810876E-2,7.570849E-2,-6.780299E-3],"categories":[],"categories_nodes":[],"categories_segments":[],"categories_sizes":[],"default_left":[0,0,0,0,0,0,0,0,0,0,0,0,0,0,0,0,0,0,0,0,0,0,0,0,0,0,0,0,0,0,0,0,0,0,0,0,0,0,0,0,0,0,0,0,0,0,0,0,0,0,0,0,0,0,0,0,0,0,0,0,0,0,0,0,0],"id":7,"left_children":[1,3,5,7,9,11,13,-1,15,17,19,21,23,-1,25,-1,27,29,31,33,35,37,-1,39,41,43,-1,45,47,-1,-1,-1,49,51,53,-1,55,57,-1,-1,59,-1,61,-1,63,-1,-1,-1,-1,-1,-1,-1,-1,-1,-1,-1,-1,-1,-1,-1,-1,-1,-1,-1,-1],"loss_changes":[3.2078058E2,2.8820679E1,1.2965958E1,3.5257874E0,3.4925795E0,2.97649E0,5.98114E-1,0E0,9.1506195E-1,3.8178346E0,5.858657E0,1.2289352E0,1.0050029E0,0E0,8.693619E-1,0E0,5.392132E-1,1.5559223E0,2.6422482E0,1.5337591E0,4.670143E-1,2.9800034E-1,0E0,1.1360515E0,1.5021645E0,2.6397705E-1,0E0,1.9741726E-1,1.0548859E0,0E0,0E0,0E0,1.7015797E-1,1.4320897E0,1.8198116E0,0E0,1.5207425E0,5.405216E-1,0E0,0E0,1.5148988E0,0E0,1.6100162E-1,0E0,6.7525226E-1,0E0,0E0,0E0,0E0,0E0,0E0,0E0,0E0,0E0,0E0,0E0,0E0,0E0,0E0,0E0,0E0,0E0,0E0,0E0,0E0],"parents":[2147483647,0,0,1,1,2,2,3,3,4,4,5,5,6,6,8,8,9,9,10,10,11,11,12,12,14,14,16,16,17,17,18,18,19,19,20,20,21,21,23,23,24,24,25,25,27,27,28,28,32,32,33,33,34,34,36,36,37,37,40,40,42,42,44,44],"right_children":[2,4,6,8,10,12,14,-1,16,18,20,22,24,-1,26,-1,28,30,32,34,36,38,-1,40,42,44,-1,46,48,-1,-1,-1,50,52,54,-1,56,58,-1,-1,60,-1,62,-1,64,-1,-1,-1,-1,-1,-1,-1,-1,-1,-1,-1,-1,-1,-1,-1,-1,-1,-1,-1,-1],"split_conditions":[5.68797E0,5.008538E0,6.3208275E0,4.1137676E0,8.506335E-3,5.044619E0,4.0126333E0,-6.733583E-2,4.1243496E0,5.3587317E0,4.770452E0,5.594388E0,5.8876767E0,1.2066394E-1,7.0107174E0,1.5513559E-2,4.4274526E0,5.646705E0,5.8452225E0,3.5382118E0,9.9707127E-1,8.317977E-4,-8.490026E-3,5.1113887E0,5.1251516E0,3.1556792E0,1.8561633E-2,6.4090285E0,4.4756107E0,-5.752633E-2,4.3385588E-2,8.7984316E-2,5.1473513E0,5.4129896E0,5.66455E0,-6.189701E-2,1.8847113E0,4.5044193E0,1.9531151E-2,9.396111E-2,5.2648606E0,-5.3931512E-2,5.929497E0,1.0249361E-1,6.4407926E0,-6.6070184E-2,-3.9245676E-2,1.2812741E-2,-4.142183E-2,-4.9466165E-3,2.5931343E-2,-4.1365523E-2,3.0660152E-2,5.3884786E-2,-4.458091E-2,4.945552E-3,-4.9940284E-2,9.072317E-2,6.0726035E-2,-3.1840235E-2,4.9385887E-2,7.3360035E-4,4.2810876E-2,7.570849E-2,-6.780299E-3],"split_indices":[1,1,1,1,0,2,2,0,1,2,2,0,1,0,1,0,1,1,2,2,0,45,0,2,2,0,0,2,1,0,0,0,1,1,1,0,0,2,0,0,2,0,1,0,1,0,0,0,0,0,0,0,0,0,0,0,0,0,0,0,0,0,0,0,0],"split_type":[0,0,0,0,0,0,0,0,0,0,0,0,0,0,0,0,0,0,0,0,0,0,0,0,0,0,0,0,0,0,0,0,0,0,0,0,0,0,0,0,0,0,0,0,0,0,0,0,0,0,0,0,0,0,0,0,0,0,0,0,0,0,0,0,0],"sum_hessian":[6.654194E2,4.451203E2,2.2029907E2,3.699449E2,7.5175415E1,6.699475E1,1.5330432E2,2.80795E2,8.914985E1,2.2621317E1,5.2554096E1,5.1196392E1,1.5798361E1,9.8400345E1,5.490397E1,2.1130874E0,8.7036766E1,5.512619E0,1.7108698E1,2.5346243E1,2.7207853E1,4.949393E1,1.7024599E0,9.316171E0,6.4821906E0,5.3044834E1,1.8591341E0,2.8258278E1,5.8778484E1,4.185885E0,1.3267342E0,1.0963263E1,6.145435E0,9.076836E0,1.6269407E1,7.0387845E0,2.016907E1,4.7650192E1,1.8437389E0,1.7997215E0,7.516449E0,2.967871E0,3.5143197E0,5.019569E1,2.8491437E0,1.7486235E1,1.0772044E1,3.3896E0,5.5388885E1,4.399161E0,1.746274E0,4.641882E0,4.4349537E0,1.4900888E1,1.3685192E0,7.8671427E0,1.2301926E1,2.003375E1,2.7616444E1,3.0867677E0,4.4296813E0,1.3208873E0,2.1934323E0,1.4245719E0,1.4245719E0],"tree_param":{"num_deleted":"0","num_feature":"64","num_nodes":"65","size_leaf_vector":"1"}},{"base_weights":[2.603382E-1,-5.382444E-1,8.6504453E-1,-6.262783E-1,-9.596024E-2,5.1929504E-1,9.644856E-1,-7.4720405E-2,-4.665674E-1,-3.5719654E-1,2.3418102E-1,1.8760619E-1,6.7586255E-1,8.0966043E-1,1.0192912E-1,-5.9761065E-1,-2.0228267E-1,-3.082867E-1,-6.215344E-2,1.3576977E-1,8.061717E-2,4.6944717E-1,-8.246772E-2,5.3667355E-1,7.8208905E-1,7.004609E-1,9.5577836E-1,-6.152028E-1,-9.478083E-2,-1.5558812E-1,-6.129343E-2,-3.3414632E-1,-2.3019381E-3,7.17287E-2,6.1589535E-2,-1.3234118E-2,6.1189604E-1,-1.8707839E-1,1.8637699E-1,6.0708857E-1,-5.403432E-2,7.997086E-2,2.2992047E-2,7.0950687E-1,2.2203526E-2,9.8134816E-2,2.1561686E-2,-2.6209135E-2,-6.2283885E-2,-4.9287796E-2,3.452918E-2,-7.3128752E-3,-3.574537E-2,-9.241235E-3,-3.7766095E-2,-1.3796899E-2,1.2203677E-2,3.653362E-2,7.332277E-2,-1.0422872E-2,-5.0597895E-2,6.4825155E-2,-1.53020015E-2,7.515634E-2,4.2940278E-2,7.1848296E-2,2.3369288E-2],"categories":[],"categories_nodes":[],"categories_segments":[],"categories_sizes":[],"default_left":[0,0,0,0,0,0,0,0,0,0,0,0,0,0,0,0,0,0,0,0,0,0,0,0,0,0,0,0,0,0,0,0,0,0,0,0,0,0,0,0,0,0,0,0,0,0,0,0,0,0,0,0,0,0,0,0,0,0,0,0,0,0,0,0,0,0,0],"id":8,"left_children":[1,3,5,7,9,11,13,-1,15,17,19,21,23,25,-1,27,29,31,-1,33,-1,35,37,39,41,43,45,47,49,51,-1,53,-1,-1,55,-1,57,59,61,63,-1,-1,-1,65,-1,-1,-1,-1,-1,-1,-1,-1,-1,-1,-1,-1,-1,-1,-1,-1,-1,-1,-1,-1,-1,-1,-1],"loss_changes":[3.6401218E2,1.2595093E1,1.4242096E1,4.88311E0,4.8388333E0,4.959753E0,1.9905701E0,0E0,4.0138607E0,2.1145487E-1,1.2955426E0,2.5348125E0,5.584011E-1,7.924423E-1,0E0,6.4317703E-1,6.92477E-1,2.0101905E-1,0E0,9.263371E-1,0E0,1.4693749E0,5.297493E-1,2.7413034E0,1.598854E-1,8.559418E-2,4.781227E-1,4.2869568E-2,8.469172E-1,6.102557E-1,0E0,2.3719168E-1,0E0,0E0,2.7072254E-1,0E0,1.2922287E-1,2.951307E-1,9.5039123E-1,4.561243E-1,0E0,0E0,0E0,6.563568E-2,0E0,0E0,0E0,0E0,0E0,0E0,0E0,0E0,0E0,0E0,0E0,0E0,0E0,0E0,0E0,0E0,0E0,0E0,0E0,0E0,0E0,0E0,0E0],"parents":[2147483647,0,0,1,1,2,2,3,3,4,4,5,5,6,6,8,8,9,9,10,10,11,11,12,12,13,13,15,15,16,16,17,17,19,19,21,21,22,22,23,23,24,24,25,25,26,26,27,27,28,28,29,29,31,31,34,34,36,36,37,37,38,38,39,39,43,43],"right_children":[2,4,6,8,10,12,14,-1,16,18,20,22,24,26,-1,28,30,32,-1,34,-1,36,38,40,42,44,46,48,50,52,-1,54,-1,-1,56,-1,58,60,62,64,-1,-1,-1,66,-1,-1,-1,-1,-1,-1,-1,-1,-1,-1,-1,-1,-1,-1,-1,-1,-1,-1,-1,-1,-1,-1,-1],"split_conditions":[4.97895E0,4.5044193E0,5.787267E0,3.5651526E0,5.204047E-1,8.506335E-3,6.6527696E0,-7.4720405E-2,4.0612125E0,2.9939272E-2,5.178901E0,5.3587317E0,2.642413E0,3.880274E-1,1.0192912E-1,7.969771E-3,4.3912187E0,4.9391437E0,-6.215344E-2,1.4438056E0,8.061717E-2,5.07576E0,5.665586E0,2.3964138E0,5.7577434E0,2.5377047E-1,6.6070266E0,3.6135569E0,1.136994E-3,5.716905E0,-6.129343E-2,4.6014533E0,-2.3019381E-3,7.17287E-2,2.831302E0,-1.3234118E-2,5.2053924E0,5.602699E0,5.713102E0,5.3770313E0,-5.403432E-2,7.997086E-2,2.2992047E-2,6.6277657E0,2.2203526E-2,9.8134816E-2,2.1561686E-2,-2.6209135E-2,-6.2283885E-2,-4.9287796E-2,3.452918E-2,-7.3128752E-3,-3.574537E-2,-9.241235E-3,-3.7766095E-2,-1.3796899E-2,1.2203677E-2,3.653362E-2,7.332277E-2,-1.0422872E-2,-5.0597895E-2,6.4825155E-2,-1.53020015E-2,7.515634E-2,4.2940278E-2,7.1848296E-2,2.3369288E-2],"split_indices":[2,2,2,2,0,0,2,0,0,0,0,2,0,0,0,45,2,2,0,0,0,2,2,0,2,0,2,2,28,0,0,2,0,0,0,0,2,2,2,2,0,0,0,2,0,0,0,0,0,0,0,0,0,0,0,0,0,0,0,0,0,0,0,0,0,0,0],"split_type":[0,0,0,0,0,0,0,0,0,0,0,0,0,0,0,0,0,0,0,0,0,0,0,0,0,0,0,0,0,0,0,0,0,0,0,0,0,0,0,0,0,0,0,0,0,0,0,0,0,0,0,0,0,0,0,0,0,0,0,0,0,0,0,0,0,0,0],"sum_hessian":[7.518278E2,3.2402557E2,4.2780225E2,2.6988974E2,5.4135845E1,9.69469E1,3.3085535E2,1.5150139E2,1.1838835E2,3.0176018E1,2.3959826E1,3.179253E1,6.5154366E1,9.0622086E1,2.4023326E2,7.830183E1,4.008652E1,2.7292421E1,2.883597E0,2.1498383E1,2.4614432E0,1.519611E1,1.6596418E1,3.0821291E1,3.4333076E1,5.5178715E1,3.544337E1,7.5439026E1,2.8628013E0,3.723183E1,2.854693E0,2.486688E1,2.4255402E0,1.4513526E0,2.004703E1,2.922155E0,1.2273955E1,1.2166449E1,4.4299703E0,2.9339415E1,1.4818773E0,3.2836952E1,1.4961233E0,5.3680725E1,1.4979899E0,3.3944847E1,1.4985235E0,2.3445358E0,7.309449E1,1.4400845E0,1.422717E0,2.7401112E1,9.830718E0,4.269957E0,2.0596924E1,4.362464E0,1.56845665E1,5.370844E0,6.9031115E0,1.0710676E1,1.455773E0,1.4909604E0,2.93901E0,1.440064E1,1.4938774E1,5.218624E1,1.494485E0],"tree_param":{"num_deleted":"0","num_feature":"64","num_nodes":"67","size_leaf_vector":"1"}},{"base_weights":[-2.9052815E-1,-5.902428E-1,1.0067189E0,-6.182001E-1,-6.417694E-3,1.0378356E0,-4.4058297E-2,-6.3072406E-2,-4.2661086E-1,2.5314012E-1,-2.645833E-1,1.111993E0,6.4775765E-1,1.3665404E-2,-4.758946E-1,4.7526097E-1,-4.5514714E-2,-5.55032E-2,6.761153E-2,1.1387763E-1,7.0740825E-1,4.4026836E-3,8.072265E-1,2.7382359E-2,-3.4535583E-2,-5.315895E-1,-1.6852506E-1,6.3819885E-1,-3.5636377E-2,3.9659727E-1,-2.4482095E-1,-1.5270809E-2,9.930801E-2,3.3720862E-2,-4.6156194E-2,9.528135E-1,1.7875066E-1,-1.187603E-2,-5.6941062E-2,6.1525386E-2,-4.983736E-2,8.845347E-2,3.5820916E-2,5.2700628E-2,8.394471E-3,9.611698E-3,-4.3254875E-2,1.0458586E-1,3.8367026E-2,-3.9911237E-2,5.8134682E-2],"categories":[],"categories_nodes":[],"categories_segments":[],"categories_sizes":[],"default_left":[0,0,0,0,0,0,0,0,0,0,0,0,0,0,0,0,0,0,0,0,0,0,0,0,0,0,0,0,0,0,0,0,0,0,0,0,0,0,0,0,0,0,0,0,0,0,0,0,0,0,0],"id":9,"left_children":[1,3,5,7,9,11,-1,-1,13,15,17,19,21,23,25,27,-1,-1,29,-1,31,33,35,-1,-1,37,39,41,-1,43,45,-1,-1,-1,-1,47,49,-1,-1,-1,-1,-1,-1,-1,-1,-1,-1,-1,-1,-1,-1],"loss_changes":[2.1637827E2,7.364914E0,5.164772E0,7.646637E-1,1.5171529E0,2.248436E0,0E0,0E0,6.471386E-1,1.9945194E0,1.1315591E0,1.1374664E-1,1.9241223E0,4.629731E-1,3.6543798E-1,1.4596376E0,0E0,0E0,7.323846E-1,0E0,2.0946102E0,8.9034075E-1,1.2068653E0,0E0,0E0,2.764783E-1,1.739295E0,2.3230863E-1,0E0,9.4073296E-2,2.840475E-1,0E0,0E0,0E0,0E0,2.336607E-1,1.1769909E0,0E0,0E0,0E0,0E0,0E0,0E0,0E0,0E0,0E0,0E0,0E0,0E0,0E0,0E0],"parents":[2147483647,0,0,1,1,2,2,3,3,4,4,5,5,8,8,9,9,10,10,11,11,12,12,13,13,14,14,15,15,18,18,20,20,21,21,22,22,25,25,26,26,27,27,29,29,30,30,35,35,36,36],"right_children":[2,4,6,8,10,12,-1,-1,14,16,18,20,22,24,26,28,-1,-1,30,-1,32,34,36,-1,-1,38,40,42,-1,44,46,-1,-1,-1,-1,48,50,-1,-1,-1,-1,-1,-1,-1,-1,-1,-1,-1,-1,-1,-1],"split_conditions":[5.716905E0,5.167088E0,4.559811E0,4.0612125E0,5.4414E0,4.4274526E0,-4.4058297E-2,-6.3072406E-2,4.19073E0,5.66455E0,5.594388E0,3.6135569E0,4.716502E0,5.1853013E0,5.68797E0,5.145856E0,-4.5514714E-2,-5.55032E-2,3.6532269E0,1.1387763E-1,3.7620764E0,2.7137551E0,5.4129896E0,2.7382359E-2,-3.4535583E-2,4.328592E0,5.7976904E0,3.8014631E0,-3.5636377E-2,5.464691E0,4.0519314E0,-1.5270809E-2,9.930801E-2,3.3720862E-2,-4.6156194E-2,3.5382118E0,5.620521E0,-1.187603E-2,-5.6941062E-2,6.1525386E-2,-4.983736E-2,8.845347E-2,3.5820916E-2,5.2700628E-2,8.394471E-3,9.611698E-3,-4.3254875E-2,1.0458586E-1,3.8367026E-2,-3.9911237E-2,5.8134682E-2],"split_indices":[0,0,2,0,0,1,0,0,0,1,0,2,1,1,1,2,0,0,2,0,2,2,1,0,0,0,1,2,0,1,1,0,0,0,0,2,1,0,0,0,0,0,0,0,0,0,0,0,0,0,0],"split_type":[0,0,0,0,0,0,0,0,0,0,0,0,0,0,0,0,0,0,0,0,0,0,0,0,0,0,0,0,0,0,0,0,0,0,0,0,0,0,0,0,0,0,0,0,0,0,0,0,0,0,0],"sum_hessian":[5.539944E2,4.504645E2,1.0352988E2,4.2982297E2,2.0641548E1,1.0162782E2,1.9020567E0,4.012985E2,2.8524462E1,1.0302728E1,1.0338821E1,8.383864E1,1.7789179E1,2.9442976E0,2.5580164E1,8.093563E0,2.2091641E0,5.1581125E0,5.180709E0,7.6931145E1,6.907496E0,3.7376711E0,1.4051509E1,1.8448014E0,1.0994962E0,2.1038532E1,4.5416317E0,6.9620886E0,1.1314746E0,2.3922877E0,2.7884212E0,1.8382459E0,5.06925E0,2.3415718E0,1.3960993E0,1.098967E1,3.0618386E0,2.1131277E0,1.8925406E1,1.0889146E0,3.4527173E0,2.5550117E0,4.407077E0,1.20435E0,1.1879377E0,1.1634476E0,1.6249735E0,8.725585E0,2.2640848E0,1.2608054E0,1.8010333E0],"tree_param":{"num_deleted":"0","num_feature":"64","num_nodes":"51","size_leaf_vector":"1"}},{"base_weights":[-1.633637E-2,-4.6610078E-1,8.9911336E-1,-6.44723E-1,-9.448746E-2,9.6210974E-1,8.49967E-2,-6.553284E-2,-5.256607E-1,-2.961015E-1,2.8608875E-2,7.238465E-1,1.03851795E-1,-8.092804E-2,5.838591E-1,-7.7159978E-3,-5.504271E-1,2.63138E-1,-3.436997E-1,2.4888441E-1,-7.249723E-2,7.482722E-1,-7.830811E-3,-5.0700214E-2,4.9375717E-2,8.850288E-2,-2.6341155E-3,-6.398248E-2,-3.698023E-1,4.8053875E-3,4.8348155E-2,-2.3546045E-1,-5.05807E-1,-1.7075214E-1,4.105085E-1,1.8298246E-1,-3.062603E-1,9.01579E-1,5.962656E-1,4.0518146E-2,-8.679241E-2,3.3253666E-2,-5.196133E-2,-3.1286642E-2,2.7113408E-2,-5.839033E-2,-2.003674E-2,-4.110476E-2,2.5851801E-2,5.4437883E-2,7.5385342E-3,2.6049921E-2,-3.5800703E-2,-1.5986899E-2,-5.4495137E-2,1.046315E-1,3.8140822E-2,-7.568024E-3,6.352662E-2,-2.012266E-2,2.337192E-2],"categories":[],"categories_nodes":[],"categories_segments":[],"categories_sizes":[],"default_left":[0,0,0,0,0,0,0,0,0,0,0,0,0,0,0,0,0,0,0,0,0,0,0,0,0,0,0,0,0,0,0,0,0,0,0,0,0,0,0,0,0,0,0,0,0,0,0,0,0,0,0,0,0,0,0,0,0,0,0,0,0],"id":10,"left_children":[1,3,5,7,9,11,13,-1,15,17,19,21,-1,23,25,-1,27,29,31,33,35,37,-1,-1,39,-1,-1,-1,41,-1,-1,43,45,47,49,51,53,55,57,-1,59,-1,-1,-1,-1,-1,-1,-1,-1,-1,-1,-1,-1,-1,-1,-1,-1,-1,-1,-1,-1],"loss_changes":[2.671204E2,2.8814201E1,1.0880157E1,2.6283264E-2,3.5422435E0,2.8582E0,1.4087256E0,0E0,2.8041744E-1,1.5296311E0,2.0073307E0,1.0666485E0,0E0,7.590581E-1,8.001332E-1,0E0,2.0558167E-1,2.0459068E-1,7.6277447E-1,1.991249E0,3.758502E0,6.2814903E-1,0E0,0E0,5.6985396E-1,0E0,0E0,0E0,1.3760513E0,0E0,0E0,1.3399713E0,3.4222603E-1,9.915581E-1,8.895726E-1,1.3617193E0,1.0571539E0,1.3289471E0,7.8372097E-1,0E0,3.699774E-1,0E0,0E0,0E0,0E0,0E0,0E0,0E0,0E0,0E0,0E0,0E0,0E0,0E0,0E0,0E0,0E0,0E0,0E0,0E0,0E0],"parents":[2147483647,0,0,1,1,2,2,3,3,4,4,5,5,6,6,8,8,9,9,10,10,11,11,13,13,14,14,16,16,17,17,18,18,19,19,20,20,21,21,24,24,28,28,31,31,32,32,33,33,34,34,35,35,36,36,37,37,38,38,40,40],"right_children":[2,4,6,8,10,12,14,-1,16,18,20,22,-1,24,26,-1,28,30,32,34,36,38,-1,-1,40,-1,-1,-1,42,-1,-1,44,46,48,50,52,54,56,58,-1,60,-1,-1,-1,-1,-1,-1,-1,-1,-1,-1,-1,-1,-1,-1,-1,-1,-1,-1,-1,-1],"split_conditions":[5.7366905E0,4.4274526E0,5.044619E0,4.1137676E0,4.9975395E0,6.3871436E0,5.3587317E0,-6.553284E-2,4.1243496E0,4.4756107E0,8.506335E-3,1.136994E-3,1.03851795E-1,5.8255677E0,5.4115467E0,-7.7159978E-3,6.3584895E0,6.384174E0,4.829347E0,5.3587317E0,4.770452E0,4.5044193E0,-7.830811E-3,-5.0700214E-2,5.8544426E0,8.850288E-2,-2.6341155E-3,-6.398248E-2,6.455856E0,4.8053875E-3,4.8348155E-2,4.9102993E0,5.8452225E0,5.646705E0,5.8452225E0,5.66455E0,2.522999E0,4.6531067E0,4.5267344E0,4.0518146E-2,6.194278E0,3.3253666E-2,-5.196133E-2,-3.1286642E-2,2.7113408E-2,-5.839033E-2,-2.003674E-2,-4.110476E-2,2.5851801E-2,5.4437883E-2,7.5385342E-3,2.6049921E-2,-3.5800703E-2,-1.5986899E-2,-5.4495137E-2,1.046315E-1,3.8140822E-2,-7.568024E-3,6.352662E-2,-2.012266E-2,2.337192E-2],"split_indices":[1,1,2,1,1,1,2,0,1,1,0,28,0,1,2,0,2,2,1,2,2,2,0,0,1,0,0,0,2,0,0,0,2,1,2,1,0,0,2,0,1,0,0,0,0,0,0,0,0,0,0,0,0,0,0,0,0,0,0,0,0],"split_type":[0,0,0,0,0,0,0,0,0,0,0,0,0,0,0,0,0,0,0,0,0,0,0,0,0,0,0,0,0,0,0,0,0,0,0,0,0,0,0,0,0,0,0,0,0,0,0,0,0,0,0,0,0,0,0,0,0,0,0,0,0],"sum_hessian":[6.4674725E2,4.3400803E2,2.1273918E2,2.9262027E2,1.4138777E2,1.9729102E2,1.5448176E1,2.6455145E2,2.8068794E1,5.3066715E1,8.832107E1,5.044915E1,1.4684186E2,1.2221128E1,3.2270486E0,1.684226E0,2.638457E1,3.80718E0,4.9259533E1,2.7325832E1,6.0995235E1,4.902355E1,1.4256012E0,2.185135E0,1.0035994E1,1.8590887E0,1.36796E0,1.5948695E1,1.0435873E1,2.5429828E0,1.2641972E0,3.1007967E1,1.8251566E1,7.582459E0,1.9743372E1,2.9247675E1,3.174756E1,2.1952291E1,2.7071259E1,2.2309499E0,7.8050437E0,1.6202345E0,8.815639E0,2.7229763E1,3.7782052E0,1.3809102E1,4.4424644E0,4.888462E0,2.6939971E0,1.3661611E1,6.0817623E0,2.603559E1,3.2120845E0,2.0713541E1,1.10340185E1,1.6382442E1,5.569848E0,1.4334617E0,2.5637796E1,6.0257897E0,1.7792537E0],"tree_param":{"num_deleted":"0","num_feature":"64","num_nodes":"61","size_leaf_vector":"1"}},{"base_weights":[2.4346073E-1,-4.9442008E-1,7.859828E-1,-7.120948E-2,-3.1208494E-1,8.857985E-1,3.8892028E-1,4.3972444E-2,-5.068421E-1,7.486946E-1,9.375758E-1,3.1975824E-1,5.9564316E-1,-6.6276856E-2,2.22651E-1,-5.732209E-1,-3.2011512E-1,7.6289755E-1,1.4325579E-2,9.413217E-2,1.9796511E-2,5.057446E-1,8.699006E-2,6.845439E-1,4.6015855E-2,-1.8972617E-1,3.6580324E-1,5.467415E-1,-2.7364197E-1,-5.886056E-1,-1.5941173E-1,-2.4038151E-1,-6.4739086E-2,4.6685335E-1,7.773032E-1,7.2129613E-1,3.0474812E-1,-3.0696815E-1,1.5411305E-1,1.9491686E-2,7.17267E-2,-1.6258804E-2,2.3629244E-2,-3.4222973E-3,-5.2197468E-2,7.793788E-2,1.4333832E-2,4.1521072E-2,8.026191E-2,-6.0533084E-2,-9.221151E-3,-5.9808712E-2,-3.4450486E-3,-5.2672174E-2,3.4321405E-2,1.953286E-2,-3.192387E-2,7.371511E-2,1.5199698E-2,9.040593E-2,7.1072794E-2,4.7631633E-2,8.225847E-2,-3.9873123E-3,3.7403286E-2,-6.199391E-3,-5.249087E-2,6.7481145E-2,3.8750183E-3],"categories":[],"categories_nodes":[],"categories_segments":[],"categories_sizes":[],"default_left":[0,0,0,0,0,0,0,0,0,0,0,0,0,0,0,0,0,0,0,0,0,0,0,0,0,0,0,0,0,0,0,0,0,0,0,0,0,0,0,0,0,0,0,0,0,0,0,0,0,0,0,0,0,0,0,0,0,0,0,0,0,0,0,0,0,0,0,0,0],"id":11,"left_children":[1,3,5,-1,7,9,11,13,15,17,19,21,23,25,27,29,31,33,-1,-1,-1,35,37,39,41,43,45,47,49,51,53,55,-1,57,59,61,63,65,67,-1,-1,-1,-1,-1,-1,-1,-1,-1,-1,-1,-1,-1,-1,-1,-1,-1,-1,-1,-1,-1,-1,-1,-1,-1,-1,-1,-1,-1,-1],"loss_changes":[2.9866296E2,1.2332436E1,1.6688843E1,0E0,1.2082245E1,1.7305298E0,1.0694027E0,1.2442307E0,1.2109222E0,7.4111557E-1,4.9176025E-1,2.9079385E0,9.9126387E-1,2.1692736E0,4.017064E0,4.264965E-1,6.733837E-1,4.8210144E-2,0E0,0E0,0E0,1.4133081E0,8.800832E-1,1.4771271E-1,1.9664495E-1,1.5981307E0,7.245995E-1,1.6752481E-1,5.559122E-1,3.9148903E-1,9.748518E-1,9.9471617E-1,0E0,4.817226E-1,1.205101E-1,4.1365623E-2,5.2200115E-1,2.3007438E-1,1.6301776E0,0E0,0E0,0E0,0E0,0E0,0E0,0E0,0E0,0E0,0E0,0E0,0E0,0E0,0E0,0E0,0E0,0E0,0E0,0E0,0E0,0E0,0E0,0E0,0E0,0E0,0E0,0E0,0E0,0E0,0E0],"parents":[2147483647,0,0,1,1,2,2,4,4,5,5,6,6,7,7,8,8,9,9,10,10,11,11,12,12,13,13,14,14,15,15,16,16,17,17,21,21,22,22,23,23,24,24,25,25,26,26,27,27,28,28,29,29,30,30,31,31,33,33,34,34,35,35,36,36,37,37,38,38],"right_children":[2,4,6,-1,8,10,12,14,16,18,20,22,24,26,28,30,32,34,-1,-1,-1,36,38,40,42,44,46,48,50,52,54,56,-1,58,60,62,64,66,68,-1,-1,-1,-1,-1,-1,-1,-1,-1,-1,-1,-1,-1,-1,-1,-1,-1,-1,-1,-1,-1,-1,-1,-1,-1,-1,-1,-1,-1,-1],"split_conditions":[4.97895E0,3.5651526E0,4.942604E0,-7.120948E-2,5.906995E0,6.6527696E0,5.787267E0,4.4953465E0,4.5044193E0,6.6277657E0,4.4067445E0,5.3770313E0,6.0979967E0,5.646705E0,5.559578E0,7.969771E-3,6.4726872E0,5.2053924E0,1.4325579E-2,9.413217E-2,1.9796511E-2,5.68797E0,5.4115467E0,4.9776773E0,5.0304127E0,5.1853013E0,5.68797E0,5.436057E0,4.7256575E0,7.141129E0,1.136994E-3,4.6296096E0,-6.4739086E-2,5.0945325E0,4.1137676E0,5.2053924E0,5.7366905E0,5.7366905E0,5.47443E0,1.9491686E-2,7.17267E-2,-1.6258804E-2,2.3629244E-2,-3.4222973E-3,-5.2197468E-2,7.793788E-2,1.4333832E-2,4.1521072E-2,8.026191E-2,-6.0533084E-2,-9.221151E-3,-5.9808712E-2,-3.4450486E-3,-5.2672174E-2,3.4321405E-2,1.953286E-2,-3.192387E-2,7.371511E-2,1.5199698E-2,9.040593E-2,7.1072794E-2,4.7631633E-2,8.225847E-2,-3.9873123E-3,3.7403286E-2,-6.199391E-3,-5.249087E-2,6.7481145E-2,3.8750183E-3],"split_indices":[2,2,1,0,1,2,2,2,2,2,1,2,2,1,1,45,1,2,0,0,0,1,2,1,1,1,1,1,2,1,28,2,0,2,1,2,1,1,2,0,0,0,0,0,0,0,0,0,0,0,0,0,0,0,0,0,0,0,0,0,0,0,0,0,0,0,0,0,0],"split_type":[0,0,0,0,0,0,0,0,0,0,0,0,0,0,0,0,0,0,0,0,0,0,0,0,0,0,0,0,0,0,0,0,0,0,0,0,0,0,0,0,0,0,0,0,0,0,0,0,0,0,0,0,0,0,0,0,0,0,0,0,0,0,0,0,0,0,0,0,0],"sum_hessian":[7.440962E2,3.1532007E2,4.2877615E2,1.424069E2,1.7291315E2,3.4165753E2,8.711862E1,6.1412434E1,1.11500725E2,9.789525E1,2.4376228E2,6.718706E1,1.9931566E1,3.8367664E1,2.304477E1,8.073184E1,3.0768877E1,9.5397255E1,2.4979894E0,2.4226259E2,1.4996938E0,3.669461E1,3.0492447E1,1.694525E1,2.9863172E0,3.027789E1,8.089775E0,1.3879496E1,9.165273E0,7.743071E1,3.3011363E0,2.613592E1,4.6329565E0,5.976882E0,8.942038E1,1.6457136E1,2.0237476E1,3.918831E0,2.6573616E1,1.4973485E0,1.54479E1,1.4939682E0,1.492349E0,2.1376152E1,8.901737E0,1.9539282E0,6.135847E0,1.0899456E1,2.9800391E0,2.414564E0,6.7507086E0,7.605022E1,1.3804893E0,1.8796101E0,1.4215261E0,3.7789683E0,2.235695E1,2.494325E0,3.4825573E0,2.6460804E1,6.295957E1,6.482038E0,9.975097E0,3.4586604E0,1.6778816E1,2.4497094E0,1.4691216E0,3.940124E0,2.2633492E1],"tree_param":{"num_deleted":"0","num_feature":"64","num_nodes":"69","size_leaf_vector":"1"}},{"base_weights":[-2.9324874E-1,-5.7009584E-1,9.208236E-1,-6.0841143E-1,-1.3167606E-1,9.991036E-1,5.147344E-1,-6.17207E-2,-4.5336804E-1,5.1202756E-1,-2.019878E-1,1.0219337E-1,-3.503303E-2,6.8266374E-1,1.9622657E-1,-4.8694304E-1,1.7506747E-2,8.5658215E-2,-1.0151706E-3,-9.030363E-2,-4.7504404E-1,8.37136E-1,1.895165E-1,4.2239323E-1,-4.715826E-2,-5.804212E-2,-3.6601284E-1,6.515079E-1,-2.5750506E-1,-5.6784313E-2,-3.1796116E-3,1.0731763E-1,3.4714377E-1,5.803156E-2,-3.866394E-2,1.6901093E-3,6.653064E-2,-3.0084301E-3,-5.594032E-2,1.3810839E-2,1.0053308E-1,-1.3969806E-2,-5.3768873E-2,5.5559725E-2,-4.3896125E-3],"categories":[],"categories_nodes":[],"categories_segments":[],"categories_sizes":[],"default_left":[0,0,0,0,0,0,0,0,0,0,0,0,0,0,0,0,0,0,0,0,0,0,0,0,0,0,0,0,0,0,0,0,0,0,0,0,0,0,0,0,0,0,0,0,0],"id":12,"left_children":[1,3,5,7,9,11,13,-1,15,17,19,-1,-1,21,23,25,-1,-1,-1,27,29,31,33,35,-1,-1,37,39,41,-1,-1,-1,43,-1,-1,-1,-1,-1,-1,-1,-1,-1,-1,-1,-1],"loss_changes":[1.798193E2,7.2271576E0,2.6466522E0,2.6531982E-1,1.7435305E0,2.8935776E0,8.359022E-1,0E0,6.1755276E-1,7.0162463E-1,9.7524905E-1,0E0,0E0,7.15065E-1,1.3566165E0,6.1270714E-2,0E0,0E0,0E0,3.2598102E0,3.7093067E-1,6.0373354E-1,1.1314052E0,6.0457516E-1,0E0,0E0,8.4484065E-1,7.455721E-1,6.200484E-1,0E0,0E0,0E0,3.6857355E-1,0E0,0E0,0E0,0E0,0E0,0E0,0E0,0E0,0E0,0E0,0E0,0E0],"parents":[2147483647,0,0,1,1,2,2,3,3,4,4,5,5,6,6,8,8,9,9,10,10,13,13,14,14,15,15,19,19,20,20,21,21,22,22,23,23,26,26,27,27,28,28,32,32],"right_children":[2,4,6,8,10,12,14,-1,16,18,20,-1,-1,22,24,26,-1,-1,-1,28,30,32,34,36,-1,-1,38,40,42,-1,-1,-1,44,-1,-1,-1,-1,-1,-1,-1,-1,-1,-1,-1,-1],"split_conditions":[5.716905E0,4.613713E0,4.4274526E0,3.796488E0,3.343336E0,4.6296096E0,6.4278965E0,-6.17207E-2,6.3208275E0,5.3973413E0,5.4129896E0,1.0219337E-1,-3.503303E-2,5.4129896E0,2.7137551E0,4.9167027E0,1.7506747E-2,8.5658215E-2,-1.0151706E-3,3.8014631E0,4.080534E0,3.3745918E0,5.937039E0,6.83637E0,-4.715826E-2,-5.804212E-2,5.497216E0,4.9355445E0,5.145856E0,-5.6784313E-2,-3.1796116E-3,1.0731763E-1,6.0682607E0,5.803156E-2,-3.866394E-2,1.6901093E-3,6.653064E-2,-3.0084301E-3,-5.594032E-2,1.3810839E-2,1.0053308E-1,-1.3969806E-2,-5.3768873E-2,5.5559725E-2,-4.3896125E-3],"split_indices":[0,0,1,0,2,2,0,0,1,0,1,0,0,1,2,2,0,0,0,2,2,2,0,0,0,0,2,1,2,0,0,0,0,0,0,0,0,0,0,0,0,0,0,0,0],"split_type":[0,0,0,0,0,0,0,0,0,0,0,0,0,0,0,0,0,0,0,0,0,0,0,0,0,0,0,0,0,0,0,0,0,0,0,0,0,0,0,0,0,0,0,0,0],"sum_hessian":[5.3243567E2,4.3400024E2,9.843543E1,3.9876273E2,3.5237522E1,8.130275E1,1.7132685E1,3.7453467E2,2.422808E1,2.8513327E0,3.238619E1,8.018879E1,1.1139618E0,1.0469467E1,6.6632185E0,2.3213045E1,1.0150373E0,1.3320167E0,1.5193161E0,2.3929409E1,8.456779E0,7.4410987E0,3.0283687E0,5.2520146E0,1.4112036E0,1.0949513E1,1.2263531E1,3.868729E0,2.0060678E1,6.7603297E0,1.6964493E0,4.2186756E0,3.2224228E0,1.8001385E0,1.2282302E0,2.3682683E0,2.8837464E0,4.9027596E0,7.360771E0,2.1456733E0,1.7230558E0,1.5177632E1,4.8830466E0,1.8274406E0,1.3949821E0],"tree_param":{"num_deleted":"0","num_feature":"64","num_nodes":"45","size_leaf_vector":"1"}},{"base_weights":[-1.7025713E-2,-5.13057E-1,7.056234E-1,-6.188574E-1,-2.0360167E-1,2.8069323E-1,9.0033966E-1,-6.4597666E-2,-5.354522E-1,-7.637167E-2,-3.5717905E-1,4.8746386E-1,1.542847E-1,6.349145E-1,9.3573734E-2,-1.3355389E-2,-5.455829E-1,4.4726884E-1,-1.24772966E-1,-1.9182725E-1,-5.860882E-2,-4.2743992E-2,5.4255927E-1,4.5695493E-1,-1.8917666E-1,7.71054E-1,2.6891455E-1,-4.6296096E-1,-5.9798326E-2,7.741323E-2,-9.447464E-3,-3.564699E-1,-9.374606E-3,-3.1298494E-1,1.2794164E-1,7.584752E-1,4.223354E-1,2.7913514E-1,7.173569E-1,-3.8174367E-1,8.678852E-2,6.07914E-1,1.0174415E-1,4.3775058E-1,-4.3924816E-2,-1.355115E-2,-5.2815836E-2,-3.8184342E-3,-4.6965647E-2,1.6277064E-2,-3.5067987E-2,-5.541761E-2,-2.1801012E-2,-1.2776953E-2,7.2305635E-2,1.076731E-1,2.0898905E-2,7.535031E-2,1.8339558E-2,-3.642961E-2,4.8392337E-2,3.9372917E-2,8.337398E-2,-4.6956196E-2,3.6603455E-5,5.6008022E-2,-2.5475338E-2,7.388858E-2,1.2507263E-2,1.2586481E-2,5.7675906E-2,-8.620411E-3,2.0266993E-3],"categories":[],"categories_nodes":[],"categories_segments":[],"categories_sizes":[],"default_left":[0,0,0,0,0,0,0,0,0,0,0,0,0,0,0,0,0,0,0,0,0,0,0,0,0,0,0,0,0,0,0,0,0,0,0,0,0,0,0,0,0,0,0,0,0,0,0,0,0,0,0,0,0,0,0,0,0,0,0,0,0,0,0,0,0,0,0,0,0,0,0,0,0],"id":13,"left_children":[1,3,5,7,9,11,13,-1,15,17,19,21,23,25,-1,-1,27,29,31,33,-1,-1,35,37,39,41,43,45,-1,-1,-1,47,49,51,53,55,57,59,61,63,65,67,-1,69,71,-1,-1,-1,-1,-1,-1,-1,-1,-1,-1,-1,-1,-1,-1,-1,-1,-1,-1,-1,-1,-1,-1,-1,-1,-1,-1,-1,-1],"loss_changes":[2.2948332E2,1.2302399E1,2.130835E1,2.9284668E-1,1.8916516E0,2.103066E0,1.0805969E0,0E0,2.330513E-1,1.449337E0,1.5614853E0,1.8023796E0,5.6151166E0,9.9272823E-1,0E0,0E0,3.904915E-2,9.355474E-1,1.3632739E0,1.0924171E0,0E0,0E0,4.5392036E-1,1.1223621E0,1.3946223E0,6.5589905E-2,4.4523025E-1,6.275015E-1,0E0,0E0,0E0,5.932877E-1,2.1220598E0,3.3708632E-1,1.3362468E0,1.4208193E0,1.5563903E0,2.6284566E0,8.4282875E-2,5.127561E-1,1.9765235E0,7.1223116E-1,0E0,1.5846634E-1,1.1886202E-2,0E0,0E0,0E0,0E0,0E0,0E0,0E0,0E0,0E0,0E0,0E0,0E0,0E0,0E0,0E0,0E0,0E0,0E0,0E0,0E0,0E0,0E0,0E0,0E0,0E0,0E0,0E0,0E0],"parents":[2147483647,0,0,1,1,2,2,3,3,4,4,5,5,6,6,8,8,9,9,10,10,11,11,12,12,13,13,16,16,17,17,18,18,19,19,22,22,23,23,24,24,25,25,26,26,27,27,31,31,32,32,33,33,34,34,35,35,36,36,37,37,38,38,39,39,40,40,41,41,43,43,44,44],"right_children":[2,4,6,8,10,12,14,-1,16,18,20,22,24,26,-1,-1,28,30,32,34,-1,-1,36,38,40,42,44,46,-1,-1,-1,48,50,52,54,56,58,60,62,64,66,68,-1,70,72,-1,-1,-1,-1,-1,-1,-1,-1,-1,-1,-1,-1,-1,-1,-1,-1,-1,-1,-1,-1,-1,-1,-1,-1,-1,-1,-1,-1],"split_conditions":[5.4129896E0,4.4274526E0,6.131909E0,3.499128E0,5.787267E0,4.7513394E0,6.3208275E0,-6.4597666E-2,3.5372412E0,4.5778303E0,3.880274E-1,2.7358656E0,8.506335E-3,6.2452793E0,9.3573734E-2,-1.3355389E-2,8.506335E-3,6.514792E0,4.9355445E0,6.285138E0,-5.860882E-2,-4.2743992E-2,3.5651526E0,5.329291E0,5.716729E0,4.7256575E0,4.6491656E0,6.455856E0,-5.9798326E-2,7.741323E-2,-9.447464E-3,3.5885367E0,5.273895E0,5.879368E0,4.716502E0,5.7580514E0,3.9850464E0,5.6772327E0,5.519532E0,5.635163E0,5.8369293E0,4.6491656E0,1.0174415E-1,4.1353426E0,8.506335E-3,-1.355115E-2,-5.2815836E-2,-3.8184342E-3,-4.6965647E-2,1.6277064E-2,-3.5067987E-2,-5.541761E-2,-2.1801012E-2,-1.2776953E-2,7.2305635E-2,1.076731E-1,2.0898905E-2,7.535031E-2,1.8339558E-2,-3.642961E-2,4.8392337E-2,3.9372917E-2,8.337398E-2,-4.6956196E-2,3.6603455E-5,5.6008022E-2,-2.5475338E-2,7.388858E-2,1.2507263E-2,1.2586481E-2,5.7675906E-2,-8.620411E-3,2.0266993E-3],"split_indices":[1,1,1,1,2,2,1,0,1,1,0,2,0,1,0,0,0,0,1,2,0,0,2,2,1,2,2,2,0,0,0,2,1,2,1,1,0,1,1,2,1,2,0,2,0,0,0,0,0,0,0,0,0,0,0,0,0,0,0,0,0,0,0,0,0,0,0,0,0,0,0,0,0],"split_type":[0,0,0,0,0,0,0,0,0,0,0,0,0,0,0,0,0,0,0,0,0,0,0,0,0,0,0,0,0,0,0,0,0,0,0,0,0,0,0,0,0,0,0,0,0,0,0,0,0,0,0,0,0,0,0,0,0,0,0,0,0,0,0,0,0,0,0,0,0,0,0,0,0],"sum_hessian":[6.3818854E2,3.7860294E2,2.595856E2,2.8139594E2,9.7206985E1,8.2338806E1,1.7724678E2,2.0726015E2,7.41358E1,5.3982708E1,4.3224277E1,3.0155766E1,5.218304E1,2.3084818E1,1.5416197E2,2.1715264E0,7.196428E1,3.870286E0,5.0112423E1,2.6163303E1,1.7060972E1,1.3289692E0,2.8826796E1,2.756306E1,2.461998E1,1.601943E1,7.0653877E0,3.174524E1,4.021904E1,2.1463256E0,1.7239604E0,1.5966277E1,3.4146145E1,1.8989542E1,7.173761E0,8.411433E0,2.0415363E1,1.7609833E1,9.953228E0,1.4275388E1,1.0344591E1,1.1723971E1,4.2954593E0,4.3295135E0,2.7358742E0,5.782335E0,2.5962904E1,4.5392017E0,1.1427075E1,2.3045637E1,1.1100509E1,3.9989986E0,1.4990543E1,5.5670094E0,1.6067513E0,4.7188244E0,3.6926088E0,7.6537843E0,1.2761579E1,4.063546E0,1.3546287E1,3.791947E0,6.1612806E0,1.1421562E1,2.8538256E0,4.067791E0,6.2768E0,8.8052435E0,2.918728E0,1.9222078E0,2.4073057E0,1.4427238E0,1.2931504E0],"tree_param":{"num_deleted":"0","num_feature":"64","num_nodes":"73","size_leaf_vector":"1"}},{"base_weights":[2.2480632E-1,-5.0029045E-1,7.2666633E-1,-6.776013E-2,-3.2634762E-1,8.3465606E-1,3.2139727E-1,-1.7868084E-3,-5.072451E-1,7.2367847E-1,8.6713284E-1,8.274524E-2,5.1190054E-1,8.282283E-2,-3.503288E-1,4.1147863E-4,-5.142967E-1,7.8981316E-1,5.371683E-1,8.7036125E-2,3.0113114E-2,2.5098024E-2,6.422173E-2,5.8590055E-1,-3.0527705E-1,2.081786E-2,5.3642184E-2,-2.387226E-2,-5.3611744E-2,-5.2114815E-1,-1.8998039E-3,6.168408E-1,8.558918E-2,5.964856E-1,-2.3350462E-2,-3.6872777E-1,9.113663E-2,5.109491E-1,7.286579E-2,-5.737392E-2,6.3166143E-3,1.3820632E-2,-2.3590026E-2,3.4688823E-2,-4.6566047E-2,-3.4155123E-2,-5.4203887E-2,7.287051E-2,6.917561E-3,4.6413857E-2,7.9571195E-2,-5.1671877E-3,-5.8320936E-2,3.7304096E-2,-8.483517E-3,5.948607E-2,5.952634E-3],"categories":[],"categories_nodes":[],"categories_segments":[],"categories_sizes":[],"default_left":[0,0,0,0,0,0,0,0,0,0,0,0,0,0,0,0,0,0,0,0,0,0,0,0,0,0,0,0,0,0,0,0,0,0,0,0,0,0,0,0,0,0,0,0,0,0,0,0,0,0,0,0,0,0,0,0,0],"id":14,"left_children":[1,3,5,-1,7,9,11,13,15,17,19,21,23,25,27,-1,29,31,33,-1,-1,35,-1,37,39,41,-1,43,-1,45,-1,47,-1,49,-1,51,53,55,-1,-1,-1,-1,-1,-1,-1,-1,-1,-1,-1,-1,-1,-1,-1,-1,-1,-1,-1],"loss_changes":[2.6579346E2,8.998795E0,1.8614883E1,0E0,8.972258E0,5.98114E-1,4.15884E0,1.6716273E0,3.5597038E-1,5.9991074E-1,2.0939636E-1,1.3453223E0,3.2746525E0,1.2721702E0,6.587087E-1,0E0,3.1861305E-1,1.4834976E-1,1.2757964E0,0E0,0E0,1.0559685E0,0E0,1.3364792E-1,5.217502E-1,1.273662E0,0E0,9.9070406E-1,0E0,1.7297173E-1,0E0,1.170969E0,0E0,2.4676704E-1,0E0,3.6722302E-1,1.7414466E0,1.265893E0,0E0,0E0,0E0,0E0,0E0,0E0,0E0,0E0,0E0,0E0,0E0,0E0,0E0,0E0,0E0,0E0,0E0,0E0,0E0],"parents":[2147483647,0,0,1,1,2,2,4,4,5,5,6,6,7,7,8,8,9,9,10,10,11,11,12,12,13,13,14,14,16,16,17,17,18,18,21,21,23,23,24,24,25,25,27,27,29,29,31,31,33,33,35,35,36,36,37,37],"right_children":[2,4,6,-1,8,10,12,14,16,18,20,22,24,26,28,-1,30,32,34,-1,-1,36,-1,38,40,42,-1,44,-1,46,-1,48,-1,50,-1,52,54,56,-1,-1,-1,-1,-1,-1,-1,-1,-1,-1,-1,-1,-1,-1,-1,-1,-1,-1,-1],"split_conditions":[4.8885713E0,3.5651526E0,4.9245267E0,-6.776013E-2,6.050725E0,6.4907675E0,8.506335E-3,5.748793E0,3.6135569E0,6.285138E0,4.4067445E0,6.0897245E0,6.0897245E0,5.560183E0,3.6974316E0,4.1147863E-4,7.1841025E0,5.544689E0,4.716502E0,8.7036125E-2,3.0113114E-2,5.07576E0,6.422173E-2,5.734462E0,6.216834E0,5.050079E0,5.3642184E-2,6.5754876E0,-5.3611744E-2,6.216834E0,-1.8998039E-3,5.4486604E0,8.558918E-2,3.880274E-1,-2.3350462E-2,5.7366905E0,5.3587317E0,5.635163E0,7.286579E-2,-5.737392E-2,6.3166143E-3,1.3820632E-2,-2.3590026E-2,3.4688823E-2,-4.6566047E-2,-3.4155123E-2,-5.4203887E-2,7.287051E-2,6.917561E-3,4.6413857E-2,7.9571195E-2,-5.1671877E-3,-5.8320936E-2,3.7304096E-2,-8.483517E-3,5.948607E-2,5.952634E-3],"split_indices":[2,2,1,0,1,2,0,0,2,2,1,1,1,0,2,0,1,2,1,0,0,2,0,2,1,0,0,0,0,1,0,2,0,0,0,1,2,2,0,0,0,0,0,0,0,0,0,0,0,0,0,0,0,0,0,0,0],"split_type":[0,0,0,0,0,0,0,0,0,0,0,0,0,0,0,0,0,0,0,0,0,0,0,0,0,0,0,0,0,0,0,0,0,0,0,0,0,0,0,0,0,0,0,0,0,0,0,0,0,0,0,0,0,0,0,0,0],"sum_hessian":[7.2840924E2,2.9794125E2,4.30468E2,1.461083E2,1.5183295E2,3.3906088E2,9.140712E1,5.4700626E1,9.7132324E1,8.203146E1,2.5702942E2,4.121259E1,5.0194527E1,4.462914E1,1.0071487E1,1.3268892E0,9.5805435E1,5.8170197E1,2.386127E1,2.55037E2,1.9924235E0,3.8310036E1,2.9025526E0,4.6286083E1,3.9084451E0,4.0182293E1,4.4468465E0,4.062174E0,6.0093136E0,9.444676E1,1.3586675E0,1.893623E1,3.9233967E1,2.2365833E1,1.4954375E0,4.843281E0,3.346676E1,3.3353657E1,1.29324255E1,1.9386616E0,1.9697835E0,2.789054E1,1.2291753E1,2.3254244E0,1.7367495E0,1.1649088E1,8.2797676E1,1.5449913E1,3.4863157E0,1.5439199E1,6.926633E0,2.455044E0,2.3882368E0,1.2431607E1,2.103515E1,2.785766E1,5.495998E0],"tree_param":{"num_deleted":"0","num_feature":"64","num_nodes":"57","size_leaf_vector":"1"}},{"base_weights":[-2.7862608E-1,-5.566429E-1,8.574659E-1,-6.0297262E-2,-2.0499231E-1,8.785414E-1,-3.785723E-2,1.03920266E-1,-2.8348267E-1,6.8134624E-1,9.736256E-2,-8.391453E-2,8.053663E-2,-5.5158444E-2,-2.2119123E-1,7.219375E-2,-1.5765604E-2,-3.031485E-1,1.03442945E-1,2.4391906E-1,-2.7533543E-1,7.72108E-3,-4.5685362E-2,-1.6350571E-2,3.2017853E-2,-3.464358E-2,6.283118E-2,-1.8839383E-2,-5.3994086E-2],"categories":[],"categories_nodes":[],"categories_segments":[],"categories_sizes":[],"default_left":[0,0,0,0,0,0,0,0,0,0,0,0,0,0,0,0,0,0,0,0,0,0,0,0,0,0,0,0,0],"id":15,"left_children":[1,3,5,-1,7,9,-1,11,13,15,-1,17,-1,-1,19,-1,-1,21,23,25,27,-1,-1,-1,-1,-1,-1,-1,-1],"loss_changes":[1.6351958E2,6.642685E0,2.9865494E0,0E0,1.2384741E0,1.2204895E0,0E0,1.4950722E0,5.464933E-1,1.3404102E0,0E0,4.1958204E-1,0E0,0E0,9.27194E-1,0E0,0E0,3.0477104E-1,3.903448E-1,1.146104E0,6.128216E-1,0E0,0E0,0E0,0E0,0E0,0E0,0E0,0E0],"parents":[2147483647,0,0,1,1,2,2,4,4,5,5,7,7,8,8,9,9,11,11,14,14,17,17,18,18,19,19,20,20],"right_children":[2,4,6,-1,8,10,-1,12,14,16,-1,18,-1,-1,20,-1,-1,22,24,26,28,-1,-1,-1,-1,-1,-1,-1,-1],"split_conditions":[5.716905E0,4.0612125E0,4.6296096E0,-6.0297262E-2,3.8014631E0,7.048779E0,-3.785723E-2,3.6974316E0,4.069344E0,6.984985E0,9.736256E-2,5.506421E0,8.053663E-2,-5.5158444E-2,4.140349E0,7.219375E-2,-1.5765604E-2,3.3745918E0,3.3601332E0,4.806004E0,5.497216E0,7.72108E-3,-4.5685362E-2,-1.6350571E-2,3.2017853E-2,-3.464358E-2,6.283118E-2,-1.8839383E-2,-5.3994086E-2],"split_indices":[0,0,2,0,2,0,0,2,2,0,0,0,0,0,2,0,0,2,2,0,2,0,0,0,0,0,0,0,0],"split_type":[0,0,0,0,0,0,0,0,0,0,0,0,0,0,0,0,0,0,0,0,0,0,0,0,0,0,0,0,0],"sum_hessian":[5.151972E2,4.143181E2,1.00879105E2,3.65455E2,4.8863148E1,9.947225E1,1.4068552E0,9.83435E0,3.9028797E1,3.501674E1,6.445551E1,8.451546E0,1.3828046E0,5.877444E0,3.3151352E1,3.3533886E1,1.4828528E0,3.6096902E0,4.841855E0,3.0913148E0,3.0060038E1,1.1821084E0,2.4275818E0,2.2796528E0,2.5622022E0,1.2580035E0,1.8333113E0,2.3914434E1,6.145603E0],"tree_param":{"num_deleted":"0","num_feature":"64","num_nodes":"29","size_leaf_vector":"1"}},{"base_weights":[1.0259826E-2,-5.462169E-1,5.7505554E-1,-6.034191E-1,-2.633571E-1,2.2756593E-1,8.121329E-1,-6.2541746E-2,-5.003919E-1,-3.5017237E-1,3.9810035E-2,4.3708616E-1,1.2269298E-1,6.288439E-1,8.591011E-1,7.084815E-2,-5.5131286E-2,1.6815597E-1,-3.9787972E-1,4.2980674E-1,-2.4043937E-1,2.9932585E-1,5.522764E-1,-1.3505633E-1,3.373711E-1,6.864486E-1,1.7817268E-2,8.641999E-2,2.2755384E-2,2.6831824E-2,-3.3811837E-2,3.074421E-2,-3.965326E-3,-2.5223428E-1,-5.6619048E-2,2.117073E-3,5.4367596E-1,1.5496182E-2,-3.7632886E-1,5.6081064E-2,1.4973082E-1,6.418481E-2,1.17565E-2,-5.664987E-2,-6.961776E-2,4.5707837E-1,-7.197586E-2,5.827192E-1,8.338271E-2,-4.7412973E-2,-1.1579602E-2,1.5572101E-2,8.238989E-2,9.22161E-3,-5.386699E-3,-5.231121E-2,7.0373863E-3,-4.347804E-2,2.4004282E-2,4.4940513E-2,-1.1599694E-2,3.67972E-2,8.928589E-2,-4.702405E-2,6.447294E-3,4.815766E-2,7.337435E-2],"categories":[],"categories_nodes":[],"categories_segments":[],"categories_sizes":[],"default_left":[0,0,0,0,0,0,0,0,0,0,0,0,0,0,0,0,0,0,0,0,0,0,0,0,0,0,0,0,0,0,0,0,0,0,0,0,0,0,0,0,0,0,0,0,0,0,0,0,0,0,0,0,0,0,0,0,0,0,0,0,0,0,0,0,0,0,0],"id":16,"left_children":[1,3,5,7,9,11,13,-1,15,17,19,21,23,25,27,29,-1,31,33,35,37,39,41,43,45,47,-1,-1,-1,-1,-1,-1,-1,49,-1,-1,51,53,55,-1,57,-1,-1,-1,59,61,63,65,-1,-1,-1,-1,-1,-1,-1,-1,-1,-1,-1,-1,-1,-1,-1,-1,-1,-1,-1],"loss_changes":[1.9423502E2,4.8780212E0,2.5081642E1,2.7215576E-1,1.4388525E0,2.7100134E0,1.0259018E0,0E0,1.505867E0,1.110158E0,1.518727E0,4.9426365E-1,4.760486E0,9.379425E-1,2.6087952E-1,4.955901E-1,0E0,1.3546038E-1,8.115115E-1,2.5713694E-1,2.902011E-1,7.4183655E-1,7.5988626E-1,1.0739205E0,2.3249588E0,6.2337875E-2,0E0,0E0,0E0,0E0,0E0,0E0,0E0,6.3154626E-1,0E0,0E0,3.5817027E-1,2.516875E-2,3.8959336E-1,0E0,8.852633E-1,0E0,0E0,0E0,9.038235E-1,1.082078E0,6.5241027E-1,1.8868446E-2,0E0,0E0,0E0,0E0,0E0,0E0,0E0,0E0,0E0,0E0,0E0,0E0,0E0,0E0,0E0,0E0,0E0,0E0,0E0],"parents":[2147483647,0,0,1,1,2,2,3,3,4,4,5,5,6,6,8,8,9,9,10,10,11,11,12,12,13,13,14,14,15,15,17,17,18,18,19,19,20,20,21,21,22,22,23,23,24,24,25,25,33,33,36,36,37,37,38,38,40,40,44,44,45,45,46,46,47,47],"right_children":[2,4,6,8,10,12,14,-1,16,18,20,22,24,26,28,30,-1,32,34,36,38,40,42,44,46,48,-1,-1,-1,-1,-1,-1,-1,50,-1,-1,52,54,56,-1,58,-1,-1,-1,60,62,64,66,-1,-1,-1,-1,-1,-1,-1,-1,-1,-1,-1,-1,-1,-1,-1,-1,-1,-1,-1],"split_conditions":[4.9975395E0,4.4274526E0,6.131909E0,3.7195544E0,5.050079E0,8.506335E-3,6.4726872E0,-6.2541746E-2,3.7701576E0,4.4756107E0,4.716502E0,5.6772327E0,3.6724398E0,6.4407926E0,3.1556792E0,5.560183E0,-5.5131286E-2,8.506335E-3,3.880274E-1,4.4756107E0,4.8843117E0,5.171177E0,6.0897245E0,3.6575195E-1,5.6875196E0,6.3208275E0,1.7817268E-2,8.641999E-2,2.2755384E-2,2.6831824E-2,-3.3811837E-2,3.074421E-2,-3.965326E-3,4.5905666E0,-5.6619048E-2,2.117073E-3,6.18984E0,5.6587377E0,4.9355445E0,5.6081064E-2,5.232006E0,6.418481E-2,1.17565E-2,-5.664987E-2,5.204047E-1,5.906995E0,5.1473513E0,1.7052188E0,8.338271E-2,-4.7412973E-2,-1.1579602E-2,1.5572101E-2,8.238989E-2,9.22161E-3,-5.386699E-3,-5.231121E-2,7.0373863E-3,-4.347804E-2,2.4004282E-2,4.4940513E-2,-1.1599694E-2,3.67972E-2,8.928589E-2,-4.702405E-2,6.447294E-3,4.815766E-2,7.337435E-2],"split_indices":[1,1,1,1,0,0,1,0,1,1,1,1,0,1,0,0,0,0,0,1,1,1,1,0,0,1,0,0,0,0,0,0,0,1,0,0,0,0,1,0,1,0,0,0,0,1,1,0,0,0,0,0,0,0,0,0,0,0,0,0,0,0,0,0,0,0,0],"split_type":[0,0,0,0,0,0,0,0,0,0,0,0,0,0,0,0,0,0,0,0,0,0,0,0,0,0,0,0,0,0,0,0,0,0,0,0,0,0,0,0,0,0,0,0,0,0,0,0,0,0,0,0,0,0,0,0,0,0,0,0,0,0,0,0,0,0,0],"sum_hessian":[6.160015E2,3.1030243E2,3.0569907E2,2.5716348E2,5.3138958E1,1.2477437E2,1.809247E2,2.077371E2,4.9426384E1,4.1188988E1,1.1949972E1,4.056463E1,8.420974E1,3.9840363E1,1.4108434E2,4.013292E0,4.541309E1,3.2587497E0,3.7930237E1,4.7734933E0,7.1764784E0,2.0111305E1,2.0453323E1,3.8434708E1,4.577503E1,3.4861237E1,4.979125E0,1.3958899E2,1.4953449E0,2.9383948E0,1.0748969E0,1.6639963E0,1.5947534E0,2.1673761E1,1.6256475E1,1.2987316E0,3.4747615E0,2.7961493E0,4.380329E0,6.318326E0,1.3792979E1,1.656387E1,3.8894544E0,4.05339E0,3.4381317E1,3.5327454E1,1.0447577E1,2.3368025E1,1.1493212E1,7.3100543E0,1.4363707E1,2.1096954E0,1.3650663E0,1.1712297E0,1.6249194E0,3.1682227E0,1.2121067E0,1.335466E0,1.2457514E1,2.1074402E0,3.2273876E1,3.0861444E1,4.4660087E0,2.041781E0,8.405796E0,1.6503912E1,6.8641133E0],"tree_param":{"num_deleted":"0","num_feature":"64","num_nodes":"67","size_leaf_vector":"1"}},{"base_weights":[2.1324883E-1,-4.8068628E-1,6.686278E-1,-6.710997E-2,-3.106326E-1,7.833147E-1,3.3041713E-1,7.6201424E-2,-4.5370385E-1,6.2986654E-1,8.156993E-2,8.3191164E-2,5.380864E-1,-5.7914313E-2,4.3360743E-1,-2.7807817E-1,-5.218439E-1,6.7689437E-1,3.4005702E-1,3.7851164E-1,-1.0230398E-2,5.7678276E-1,-1.5887985E-1,-1.5066625E-1,6.2142413E-2,-1.7726818E-2,5.431058E-1,-1.9258426E-1,-6.551866E-2,-5.307976E-1,-4.3495116E-4,5.507641E-1,7.674849E-2,-7.550369E-2,5.158082E-1,5.492317E-1,-3.4055583E-2,-6.282021E-2,2.2695294E-1,5.990631E-1,-2.355809E-3,-5.061391E-2,2.4878323E-2,6.0514867E-4,-4.2482387E-2,6.9871776E-2,2.4632711E-2,-3.286535E-2,2.2090483E-2,-1.8728351E-2,-5.3828705E-2,1.0385847E-3,6.374968E-2,-2.5266988E-2,1.3312675E-2,1.7258482E-2,7.0495985E-2,6.435574E-2,2.7999938E-2,3.8097922E-3,-6.688357E-2,-1.7834116E-2,3.5798524E-2,4.118659E-3,6.2436074E-2],"categories":[],"categories_nodes":[],"categories_segments":[],"categories_sizes":[],"default_left":[0,0,0,0,0,0,0,0,0,0,0,0,0,0,0,0,0,0,0,0,0,0,0,0,0,0,0,0,0,0,0,0,0,0,0,0,0,0,0,0,0,0,0,0,0,0,0,0,0,0,0,0,0,0,0,0,0,0,0,0,0,0,0,0,0],"id":17,"left_children":[1,3,5,-1,7,9,11,13,15,17,-1,19,21,23,25,27,29,31,33,35,37,39,41,43,-1,-1,45,47,-1,49,-1,51,-1,53,55,57,-1,59,61,63,-1,-1,-1,-1,-1,-1,-1,-1,-1,-1,-1,-1,-1,-1,-1,-1,-1,-1,-1,-1,-1,-1,-1,-1,-1],"loss_changes":[2.2424808E2,8.901794E0,1.6353104E1,0E0,8.362994E0,1.0718994E0,5.612028E0,2.0136704E0,1.1712341E0,5.8751297E-1,0E0,1.4242386E0,1.7016926E0,2.0499637E0,8.613279E-1,9.341552E-1,3.5960388E-1,1.5558434E-1,7.974907E-1,1.7090707E0,5.1424253E-1,7.7350235E-1,6.8144405E-1,1.2108889E0,0E0,0E0,2.8717256E-1,1.660711E0,0E0,9.6702576E-2,0E0,1.1508813E0,0E0,1.799806E-1,3.6048806E-1,8.397794E-2,0E0,2.0799325E0,4.6169096E-1,7.4739265E-1,0E0,0E0,0E0,0E0,0E0,0E0,0E0,0E0,0E0,0E0,0E0,0E0,0E0,0E0,0E0,0E0,0E0,0E0,0E0,0E0,0E0,0E0,0E0,0E0,0E0],"parents":[2147483647,0,0,1,1,2,2,4,4,5,5,6,6,7,7,8,8,9,9,11,11,12,12,13,13,14,14,15,15,16,16,17,17,18,18,19,19,20,20,21,21,22,22,23,23,26,26,27,27,29,29,31,31,33,33,34,34,35,35,37,37,38,38,39,39],"right_children":[2,4,6,-1,8,10,12,14,16,18,-1,20,22,24,26,28,30,32,34,36,38,40,42,44,-1,-1,46,48,-1,50,-1,52,-1,54,56,58,-1,60,62,64,-1,-1,-1,-1,-1,-1,-1,-1,-1,-1,-1,-1,-1,-1,-1,-1,-1,-1,-1,-1,-1,-1,-1,-1,-1],"split_conditions":[4.8577876E0,3.5651526E0,4.758368E0,-6.710997E-2,5.771205E0,6.455856E0,8.506335E-3,4.559811E0,6.3208275E0,6.384174E0,8.156993E-2,5.008538E0,6.1071715E0,5.646705E0,3.8341672E0,4.770452E0,7.2134695E0,5.906262E0,4.2677174E0,6.2520447E0,5.8452225E0,3.9942973E0,6.216834E0,5.1853013E0,6.2142413E-2,-1.7726818E-2,4.9102993E0,4.6491656E0,-6.551866E-2,3.6135569E0,-4.3495116E-4,3.6237366E0,7.674849E-2,6.4323177E0,6.4090285E0,5.9585805E0,-3.4055583E-2,5.602699E0,5.0569744E0,4.829347E0,-2.355809E-3,-5.061391E-2,2.4878323E-2,6.0514867E-4,-4.2482387E-2,6.9871776E-2,2.4632711E-2,-3.286535E-2,2.2090483E-2,-1.8728351E-2,-5.3828705E-2,1.0385847E-3,6.374968E-2,-2.5266988E-2,1.3312675E-2,1.7258482E-2,7.0495985E-2,6.435574E-2,2.7999938E-2,3.8097922E-3,-6.688357E-2,-1.7834116E-2,3.5798524E-2,4.118659E-3,6.2436074E-2],"split_indices":[2,2,1,0,1,2,0,2,1,2,0,1,1,1,0,2,1,2,1,2,2,0,1,1,0,0,0,2,0,2,0,0,0,2,2,2,0,2,1,1,0,0,0,0,0,0,0,0,0,0,0,0,0,0,0,0,0,0,0,0,0,0,0,0,0],"split_type":[0,0,0,0,0,0,0,0,0,0,0,0,0,0,0,0,0,0,0,0,0,0,0,0,0,0,0,0,0,0,0,0,0,0,0,0,0,0,0,0,0,0,0,0,0,0,0,0,0,0,0,0,0,0,0,0,0,0,0,0,0,0,0,0,0],"sum_hessian":[7.07621E2,2.8035016E2,4.272708E2,1.3086778E2,1.4948238E2,3.1809055E2,1.0918028E2,4.0485542E1,1.0899684E2,5.8996502E1,2.5909402E2,5.0482506E1,5.8697777E1,3.0048044E1,1.0437496E1,3.1888273E1,7.710857E1,4.9610493E1,9.386012E0,1.139847E1,3.9084034E1,5.57736E1,2.9241755E0,2.7123074E1,2.924971E0,1.4924453E0,8.945051E0,2.722647E1,4.661803E0,7.577186E1,1.3367097E0,2.3696829E1,2.5913662E1,2.9592679E0,6.4267445E0,9.402362E0,1.9961075E0,3.259255E1,6.4914875E0,5.3779816E1,1.9937872E0,1.448629E0,1.4755465E0,1.7880121E1,9.242952E0,4.9796815E0,3.9653695E0,2.0639637E1,6.586834E0,2.1716661E0,7.360019E1,3.4322612E0,2.0264568E1,1.486156E0,1.4731119E0,2.9628844E0,3.4638603E0,5.9332895E0,3.4690726E0,2.874316E1,3.8493874E0,1.497755E0,4.9937325E0,2.4469316E0,5.1332882E1],"tree_param":{"num_deleted":"0","num_feature":"64","num_nodes":"65","size_leaf_vector":"1"}},{"base_weights":[-2.6409987E-1,-5.4528123E-1,7.58091E-1,-5.9195276E-2,-1.8849261E-1,7.842553E-1,-2.106736E-1,1.9172998E-1,-2.8089833E-1,8.508488E-2,4.7818717E-1,-3.8623087E-2,7.993871E-3,7.038623E-1,-2.2830619E-1,-3.8796306E-1,-1.260168E-1,-5.2735742E-2,6.005622E-1,2.3191463E-2,9.2044085E-2,1.8143548E-2,-4.7968354E-2,-1.03135474E-1,-4.7441444E-1,-4.435783E-1,2.0497476E-1,2.5527412E-2,-4.7023993E-2,7.6980315E-2,3.7245324E-1,-3.501309E-2,5.172614E-2,-5.7855904E-2,-2.5281785E-2,-5.2450787E-2,-1.5591334E-2,7.3869884E-2,-9.002544E-3,1.9638E-2,7.968521E-2],"categories":[],"categories_nodes":[],"categories_segments":[],"categories_sizes":[],"default_left":[0,0,0,0,0,0,0,0,0,0,0,0,0,0,0,0,0,0,0,0,0,0,0,0,0,0,0,0,0,0,0,0,0,0,0,0,0,0,0,0,0],"id":18,"left_children":[1,3,5,-1,7,9,11,13,15,-1,17,-1,-1,19,21,23,25,27,29,-1,-1,-1,-1,31,33,35,37,-1,-1,-1,39,-1,-1,-1,-1,-1,-1,-1,-1,-1,-1],"loss_changes":[1.4258139E2,6.357773E0,2.8805923E0,0E0,1.684419E0,1.7235184E0,2.1482217E-1,2.2404056E0,5.769429E-1,0E0,1.3935385E0,0E0,0E0,2.5685263E-1,7.1189344E-1,4.8870754E-1,1.8680028E0,7.4316895E-1,3.7402534E-1,0E0,0E0,0E0,0E0,1.1559598E0,2.3387861E-1,1.2645602E-1,1.4776069E0,0E0,0E0,0E0,5.330155E-1,0E0,0E0,0E0,0E0,0E0,0E0,0E0,0E0,0E0,0E0],"parents":[2147483647,0,0,1,1,2,2,4,4,5,5,6,6,7,7,8,8,10,10,13,13,14,14,15,15,16,16,17,17,18,18,23,23,24,24,25,25,26,26,30,30],"right_children":[2,4,6,-1,8,10,12,14,16,-1,18,-1,-1,20,22,24,26,28,30,-1,-1,-1,-1,32,34,36,38,-1,-1,-1,40,-1,-1,-1,-1,-1,-1,-1,-1,-1,-1],"split_conditions":[5.6587377E0,4.0612125E0,4.559811E0,-5.9195276E-2,3.8014631E0,4.4274526E0,9.6589774E-2,5.4129896E0,4.8265324E0,8.508488E-2,4.716502E0,-3.8623087E-2,7.993871E-3,4.9355445E0,3.343336E0,4.9355445E0,3.5839736E0,2.7137551E0,5.1473513E0,2.3191463E-2,9.2044085E-2,1.8143548E-2,-4.7968354E-2,4.829347E0,5.68797E0,3.0419662E0,3.895472E0,2.5527412E-2,-4.7023993E-2,7.6980315E-2,5.7580514E0,-3.501309E-2,5.172614E-2,-5.7855904E-2,-2.5281785E-2,-5.2450787E-2,-1.5591334E-2,7.3869884E-2,-9.002544E-3,1.9638E-2,7.968521E-2],"split_indices":[0,0,2,0,2,1,1,1,2,0,1,0,0,1,2,1,1,2,1,0,0,0,0,1,1,1,1,0,0,0,1,0,0,0,0,0,0,0,0,0,0],"split_type":[0,0,0,0,0,0,0,0,0,0,0,0,0,0,0,0,0,0,0,0,0,0,0,0,0,0,0,0,0,0,0,0,0,0,0,0,0,0,0,0,0],"sum_hessian":[4.9363342E2,3.8750595E2,1.0612748E2,3.420971E2,4.540884E1,1.0352202E2,2.6054611E0,8.667936E0,3.6740902E1,8.35611E1,1.996092E1,1.4191413E0,1.1863197E0,3.6013021E0,5.066634E0,2.0834068E1,1.5906835E1,3.8456542E0,1.6115265E1,1.7841847E0,1.8171176E0,2.03228E0,3.0343542E0,5.3617935E0,1.5472275E1,7.9445176E0,7.962317E0,2.4366267E0,1.4090276E0,7.888118E0,8.227148E0,4.146573E0,1.2152202E0,9.429698E0,6.0425773E0,5.5576415E0,2.386876E0,2.298939E0,5.6633782E0,6.848563E0,1.3785847E0],"tree_param":{"num_deleted":"0","num_feature":"64","num_nodes":"41","size_leaf_vector":"1"}},{"base_weights":[-6.1502345E-3,-4.1017696E-1,6.64614E-1,-5.410486E-1,-7.584429E-4,7.2672933E-1,1.7917298E-1,-5.9154767E-1,-3.543992E-1,2.5136787E-1,-1.1635994E-1,7.4282503E-1,-5.0954845E-2,6.438532E-2,6.429156E-1,-6.141442E-2,-4.9667495E-1,3.1557925E-2,-3.784338E-1,-4.1846864E-2,5.0913376E-1,1.7631355E-1,-3.8721073E-1,8.354239E-1,6.481706E-1,1.3659671E-1,-5.0186332E-2,9.11228E-2,-6.0332892E-3,-5.6196827E-2,-2.3255464E-1,-1.09437265E-1,-4.4281882E-1,-1.3429253E-1,3.0721042E-2,1.1661E-1,7.161207E-1,-4.430788E-2,2.3131992E-1,-4.0361258E-1,9.2083396E-4,2.2586368E-2,8.487986E-2,6.1101586E-1,9.3485616E-2,2.270584E-2,6.32297E-2,5.8835763E-2,-4.6170294E-2,-5.0622415E-2,1.1562171E-2,-4.7800425E-2,-3.092139E-2,-3.3958394E-2,1.5145034E-2,3.8154807E-2,-2.6301205E-2,2.5416246E-2,8.3007276E-2,-5.168218E-3,3.2230694E-2,-3.0447228E-2,-5.355664E-2,6.6514194E-2,3.1246955E-2,1.441133E-2,-3.53443E-2],"categories":[],"categories_nodes":[],"categories_segments":[],"categories_sizes":[],"default_left":[0,0,0,0,0,0,0,0,0,0,0,0,0,0,0,0,0,0,0,0,0,0,0,0,0,0,0,0,0,0,0,0,0,0,0,0,0,0,0,0,0,0,0,0,0,0,0,0,0,0,0,0,0,0,0,0,0,0,0,0,0,0,0,0,0,0,0],"id":19,"left_children":[1,3,5,7,9,11,13,15,17,19,21,23,-1,25,27,-1,29,-1,31,33,35,37,39,41,43,45,-1,-1,-1,-1,47,49,51,53,-1,55,57,-1,59,61,-1,-1,-1,63,-1,65,-1,-1,-1,-1,-1,-1,-1,-1,-1,-1,-1,-1,-1,-1,-1,-1,-1,-1,-1,-1,-1],"loss_changes":[1.6424623E2,2.0265377E1,6.7395706E0,2.4918137E0,2.7286777E0,4.391205E0,1.4050391E0,1.7536163E-1,1.1423578E0,2.2458076E0,5.156251E0,1.2068481E0,0E0,1.0046084E0,1.0512679E0,0E0,7.0282555E-1,0E0,1.0215349E0,5.1539224E-1,1.1952295E0,1.1769652E0,2.2249699E-1,6.021118E-1,5.2700424E-1,1.1762464E0,0E0,0E0,0E0,0E0,2.3946753E0,1.242631E0,8.498955E-2,7.7369E-1,0E0,7.670206E-1,3.212452E-1,0E0,7.7939594E-1,2.5991964E-1,0E0,0E0,0E0,1.3137093E0,0E0,8.814533E-1,0E0,0E0,0E0,0E0,0E0,0E0,0E0,0E0,0E0,0E0,0E0,0E0,0E0,0E0,0E0,0E0,0E0,0E0,0E0,0E0,0E0],"parents":[2147483647,0,0,1,1,2,2,3,3,4,4,5,5,6,6,7,7,8,8,9,9,10,10,11,11,13,13,14,14,16,16,18,18,19,19,20,20,21,21,22,22,23,23,24,24,25,25,30,30,31,31,32,32,33,33,35,35,36,36,38,38,39,39,43,43,45,45],"right_children":[2,4,6,8,10,12,14,16,18,20,22,24,-1,26,28,-1,30,-1,32,34,36,38,40,42,44,46,-1,-1,-1,-1,48,50,52,54,-1,56,58,-1,60,62,-1,-1,-1,64,-1,66,-1,-1,-1,-1,-1,-1,-1,-1,-1,-1,-1,-1,-1,-1,-1,-1,-1,-1,-1,-1,-1],"split_conditions":[5.7366905E0,4.9245267E0,4.8577876E0,4.218405E0,8.506335E-3,5.594388E0,5.3587317E0,3.499128E0,4.2394543E0,5.497216E0,4.6296096E0,3.8739576E0,-5.0954845E-2,6.216834E0,5.4115467E0,-6.141442E-2,5.178901E0,3.1557925E-2,3.8437939E0,5.6772327E0,5.10618E0,4.9355445E0,4.113199E0,5.906995E0,4.770452E0,6.131909E0,-5.0186332E-2,9.11228E-2,-6.0332892E-3,-5.6196827E-2,5.560183E0,4.4274526E0,6.384174E0,5.3587317E0,3.0721042E-2,5.0304127E0,5.565623E0,-4.430788E-2,3.343336E0,2.47022E0,9.2083396E-4,2.2586368E-2,8.487986E-2,4.6014533E0,9.3485616E-2,6.6391677E-1,6.32297E-2,5.8835763E-2,-4.6170294E-2,-5.0622415E-2,1.1562171E-2,-4.7800425E-2,-3.092139E-2,-3.3958394E-2,1.5145034E-2,3.8154807E-2,-2.6301205E-2,2.5416246E-2,8.3007276E-2,-5.168218E-3,3.2230694E-2,-3.0447228E-2,-5.355664E-2,6.6514194E-2,3.1246955E-2,1.441133E-2,-3.53443E-2],"split_indices":[1,1,2,1,0,0,2,1,1,2,2,2,0,1,2,0,0,0,2,1,1,1,0,1,2,1,0,0,0,0,0,1,2,2,0,1,2,0,2,0,0,0,0,2,0,0,0,0,0,0,0,0,0,0,0,0,0,0,0,0,0,0,0,0,0,0,0],"split_type":[0,0,0,0,0,0,0,0,0,0,0,0,0,0,0,0,0,0,0,0,0,0,0,0,0,0,0,0,0,0,0,0,0,0,0,0,0,0,0,0,0,0,0,0,0,0,0,0,0,0,0,0,0,0,0,0,0,0,0,0,0,0,0,0,0,0,0],"sum_hessian":[6.040538E2,3.7722522E2,2.2682854E2,2.856083E2,9.161689E1,2.0065625E2,2.6172293E1,2.2308267E2,6.2525654E1,2.8432127E1,6.318476E1,1.984714E2,2.1848485E0,2.189226E1,4.2800317E0,1.7574977E2,4.7332897E1,1.7452607E0,6.078039E1,1.3693316E1,1.4738811E1,3.0536715E1,3.264805E1,9.636904E1,1.0210236E2,2.0089142E1,1.803118E0,2.8839636E0,1.3960681E0,3.7046833E1,1.0286065E1,1.2259735E1,4.8520657E1,1.1312532E1,2.3807836E0,5.6284866E0,9.110324E0,1.9152491E0,2.8621466E1,3.1333479E1,1.3145692E0,2.4531307E0,9.391591E1,9.316004E1,8.942322E0,1.7186272E1,2.9028697E0,1.9025806E0,8.383484E0,3.9849074E0,8.274828E0,3.636582E1,1.2154836E1,6.4733458E0,4.8391867E0,3.3119824E0,2.3165045E0,2.441794E0,6.6685295E0,7.0683517E0,2.1553114E1,1.9779812E1,1.1553667E1,7.782291E1,1.5337135E1,1.34590435E1,3.7272289E0],"tree_param":{"num_deleted":"0","num_feature":"64","num_nodes":"67","size_leaf_vector":"1"}},{"base_weights":[2.1224532E-1,-4.405526E-1,6.613315E-1,-6.190791E-1,-2.27603E-1,7.2254723E-1,3.6902905E-1,-6.5103315E-2,-4.5180947E-1,1.817963E-1,-3.8255826E-1,6.032926E-1,7.6894724E-1,1.3096507E-1,5.482404E-1,4.664496E-1,-5.70557E-1,-1.4254956E-2,5.303838E-1,-2.7671027E-1,-4.6426502E-1,4.995458E-1,6.655964E-1,7.7215955E-2,2.4563547E-2,6.7959E-2,7.516259E-2,5.928531E-2,-2.4608923E-2,-3.7476395E-3,7.711479E-2,-3.5663348E-1,-6.543236E-2,2.6028967E-1,-2.1312569E-1,6.18145E-1,9.969868E-3,-6.77049E-2,-2.020646E-1,-5.052214E-1,-2.3147346E-1,6.906583E-2,2.8588197E-1,5.544939E-1,7.8871876E-2,1.3194427E-1,-4.1051784E-1,5.6227744E-3,-4.264208E-2,-7.7399286E-3,6.309389E-2,-3.33713E-2,1.4288883E-2,7.854717E-2,4.0936466E-2,5.9084386E-2,-2.6991386E-2,-6.567763E-2,-3.873719E-2,9.166226E-4,-5.4099765E-2,3.4873378E-2,-1.3788532E-2,5.7189535E-2,8.882052E-3,-2.4228556E-2,2.2052389E-2,-1.2640563E-2,-5.2808296E-2],"categories":[],"categories_nodes":[],"categories_segments":[],"categories_sizes":[],"default_left":[0,0,0,0,0,0,0,0,0,0,0,0,0,0,0,0,0,0,0,0,0,0,0,0,0,0,0,0,0,0,0,0,0,0,0,0,0,0,0,0,0,0,0,0,0,0,0,0,0,0,0,0,0,0,0,0,0,0,0,0,0,0,0,0,0,0,0,0,0],"id":20,"left_children":[1,3,5,7,9,11,13,-1,15,17,19,21,23,25,27,29,31,33,35,37,39,41,43,-1,-1,45,-1,-1,-1,-1,-1,47,-1,49,51,53,-1,-1,55,57,59,-1,61,63,-1,65,67,-1,-1,-1,-1,-1,-1,-1,-1,-1,-1,-1,-1,-1,-1,-1,-1,-1,-1,-1,-1,-1,-1],"loss_changes":[2.0691687E2,1.080257E1,7.2121124E0,5.396843E-1,8.497597E0,1.4425812E0,3.1031685E0,0E0,3.3508577E0,2.546813E0,7.0782757E-1,3.2130814E-1,2.2117615E-1,1.2501543E0,1.6393337E0,6.1078036E-1,2.2359657E-1,1.4070534E0,4.448924E-1,1.1960325E0,3.892975E-1,1.5159483E0,3.859825E-1,0E0,0E0,1.0126703E0,0E0,0E0,0E0,0E0,0E0,2.9404736E-1,0E0,1.4067469E0,6.875953E-1,6.0643673E-2,0E0,0E0,2.2585394E0,5.3694344E-1,7.3412573E-1,0E0,6.211935E-1,2.328701E-1,0E0,9.939288E-1,6.471968E-2,0E0,0E0,0E0,0E0,0E0,0E0,0E0,0E0,0E0,0E0,0E0,0E0,0E0,0E0,0E0,0E0,0E0,0E0,0E0,0E0,0E0,0E0],"parents":[2147483647,0,0,1,1,2,2,3,3,4,4,5,5,6,6,8,8,9,9,10,10,11,11,12,12,13,13,14,14,15,15,16,16,17,17,18,18,19,19,20,20,21,21,22,22,25,25,31,31,33,33,34,34,35,35,38,38,39,39,40,40,42,42,43,43,45,45,46,46],"right_children":[2,4,6,8,10,12,14,-1,16,18,20,22,24,26,28,30,32,34,36,38,40,42,44,-1,-1,46,-1,-1,-1,-1,-1,48,-1,50,52,54,-1,-1,56,58,60,-1,62,64,-1,66,68,-1,-1,-1,-1,-1,-1,-1,-1,-1,-1,-1,-1,-1,-1,-1,-1,-1,-1,-1,-1,-1,-1],"split_conditions":[4.97895E0,3.8739576E0,5.0879345E0,3.6135569E0,5.68797E0,6.5510464E0,8.506335E-3,-6.5103315E-2,4.68332E0,4.6296096E0,6.3208275E0,8.506335E-3,4.4067445E0,6.0897245E0,6.0897245E0,3.381675E0,6.638699E0,4.2633443E0,4.9167027E0,5.8369293E0,6.82516E0,6.195928E0,5.9835563E0,7.7215955E-2,2.4563547E-2,5.929497E0,7.516259E-2,5.928531E-2,-2.4608923E-2,-3.7476395E-3,7.711479E-2,8.506335E-3,-6.543236E-2,4.140349E0,4.559811E0,4.113199E0,9.969868E-3,-6.77049E-2,5.8703794E0,4.1788354E0,4.098945E0,6.906583E-2,4.716502E0,5.9361796E0,7.8871876E-2,5.145856E0,5.1787972E0,5.6227744E-3,-4.264208E-2,-7.7399286E-3,6.309389E-2,-3.33713E-2,1.4288883E-2,7.854717E-2,4.0936466E-2,5.9084386E-2,-2.6991386E-2,-6.567763E-2,-3.873719E-2,9.166226E-4,-5.4099765E-2,3.4873378E-2,-1.3788532E-2,5.7189535E-2,8.882052E-3,-2.4228556E-2,2.2052389E-2,-1.2640563E-2,-5.2808296E-2],"split_indices":[2,2,1,2,1,2,0,0,1,2,1,0,1,1,1,1,1,2,2,1,1,2,2,0,0,1,0,0,0,0,0,0,0,2,2,0,0,0,1,2,2,0,1,2,0,2,2,0,0,0,0,0,0,0,0,0,0,0,0,0,0,0,0,0,0,0,0,0,0],"split_type":[0,0,0,0,0,0,0,0,0,0,0,0,0,0,0,0,0,0,0,0,0,0,0,0,0,0,0,0,0,0,0,0,0,0,0,0,0,0,0,0,0,0,0,0,0,0,0,0,0,0,0,0,0,0,0,0,0,0,0,0,0,0,0,0,0,0,0,0,0],"sum_hessian":[7.038156E2,2.868563E2,4.169593E2,1.5500256E2,1.3185373E2,3.4354095E2,7.3418365E1,1.27713E2,2.7289564E1,3.6155613E1,9.569812E1,1.0014806E2,2.4339288E2,3.2275047E1,4.1143314E1,2.7896314E0,2.4499933E1,2.3754696E1,1.2400918E1,4.360114E1,5.2096977E1,4.0960155E1,5.918791E1,2.4143532E2,1.9575542E0,3.0307858E1,1.9671919E0,3.919558E1,1.9477335E0,1.3816279E0,1.4080034E0,8.373398E0,1.6126535E1,9.849057E0,1.3905639E1,9.940145E0,2.4607732E0,5.583832E0,3.8017307E1,4.3307377E1,8.789601E0,2.044267E1,2.0517483E1,3.400565E1,2.5182259E1,2.7371756E1,2.9361012E0,1.238823E0,7.134575E0,5.5676727E0,4.2813845E0,1.0434099E1,3.471539E0,3.9845445E0,5.9556003E0,2.3891175E0,3.562819E1,1.6944153E1,2.6363224E1,5.491004E0,3.2985973E0,1.8021635E1,2.4958475E0,3.2560802E1,1.4448464E0,4.906714E0,2.2465042E1,1.4667344E0,1.4693669E0],"tree_param":{"num_deleted":"0","num_feature":"64","num_nodes":"69","size_leaf_vector":"1"}},{"base_weights":[-2.7291322E-1,-5.364725E-1,6.973218E-1,-5.7698935E-1,-1.6879651E-1,4.001021E-1,8.3354875E-2,-5.8478933E-2,-4.0647602E-1,-5.854819E-2,-3.3249488E-1,5.706598E-1,1.1837066E-1,-2.1194767E-3,-4.4714755E-1,-2.7180922E-1,9.1687195E-2,7.934022E-3,-4.2830145E-1,5.910699E-1,1.1330913E-2,2.723517E-1,-5.145216E-2,-5.3933334E-2,-2.91688E-1,2.5957394E-2,-5.184397E-2,4.2986873E-1,-1.687474E-1,-2.7027652E-1,-5.4314543E-2,4.493377E-1,7.797796E-1,6.0739335E-2,6.7444645E-2,2.4703234E-2,-5.064524E-2,-3.993023E-2,3.453266E-2,1.8788569E-2,5.8896054E-2,-5.0053425E-2,1.2624693E-2,-5.2046478E-2,5.6147646E-2,6.0169887E-2,-4.9124215E-2,8.789704E-2,2.4878852E-2,6.526067E-2,-1.4739826E-2],"categories":[],"categories_nodes":[],"categories_segments":[],"categories_sizes":[],"default_left":[0,0,0,0,0,0,0,0,0,0,0,0,0,0,0,0,0,0,0,0,0,0,0,0,0,0,0,0,0,0,0,0,0,0,0,0,0,0,0,0,0,0,0,0,0,0,0,0,0,0,0],"id":21,"left_children":[1,3,5,7,9,11,-1,-1,13,15,17,19,21,-1,23,25,27,-1,29,31,-1,33,-1,-1,35,37,-1,39,41,43,-1,45,47,49,-1,-1,-1,-1,-1,-1,-1,-1,-1,-1,-1,-1,-1,-1,-1,-1,-1],"loss_changes":[1.1949153E2,5.3680267E0,3.713089E0,2.012558E-1,6.632625E-1,1.5341835E0,0E0,0E0,2.6814795E-1,7.8806794E-1,6.2624776E-1,1.24402046E-1,1.488088E0,0E0,7.163215E-2,7.5494915E-1,1.3691883E0,0E0,7.703996E-2,1.6819525E-1,0E0,9.612875E-1,0E0,0E0,1.0651264E0,8.884721E-1,0E0,1.4677465E-1,9.475202E-1,1.7866759E0,0E0,2.2205572E0,1.4771271E-1,1.1822895E0,0E0,0E0,0E0,0E0,0E0,0E0,0E0,0E0,0E0,0E0,0E0,0E0,0E0,0E0,0E0,0E0,0E0],"parents":[2147483647,0,0,1,1,2,2,3,3,4,4,5,5,8,8,9,9,10,10,11,11,12,12,14,14,15,15,16,16,18,18,19,19,21,21,24,24,25,25,27,27,28,28,29,29,31,31,32,32,33,33],"right_children":[2,4,6,8,10,12,-1,-1,14,16,18,20,22,-1,24,26,28,-1,30,32,-1,34,-1,-1,36,38,-1,40,42,44,-1,46,48,50,-1,-1,-1,-1,-1,-1,-1,-1,-1,-1,-1,-1,-1,-1,-1,-1,-1],"split_conditions":[5.716905E0,4.553794E0,7.048779E0,3.796488E0,4.435765E0,6.4278965E0,8.3354875E-2,-5.8478933E-2,3.8624861E0,5.2113814E0,4.6360908E0,4.559811E0,3.5382118E0,-2.1194767E-3,5.2648606E0,5.0093446E0,5.3973413E0,7.934022E-3,5.178901E0,3.6806283E0,1.1330913E-2,2.8957887E0,-5.145216E-2,-5.3933334E-2,5.497216E0,4.806004E0,-5.184397E-2,5.33456E0,5.594388E0,5.1219935E0,-5.4314543E-2,3.5651526E0,6.040258E0,2.0249434E0,6.7444645E-2,2.4703234E-2,-5.064524E-2,-3.993023E-2,3.453266E-2,1.8788569E-2,5.8896054E-2,-5.0053425E-2,1.2624693E-2,-5.2046478E-2,5.6147646E-2,6.0169887E-2,-4.9124215E-2,8.789704E-2,2.4878852E-2,6.526067E-2,-1.4739826E-2],"split_indices":[0,0,0,0,2,0,0,0,0,0,0,2,2,0,2,0,0,0,0,2,0,2,0,0,2,0,0,0,0,0,0,2,0,2,0,0,0,0,0,0,0,0,0,0,0,0,0,0,0,0,0],"split_type":[0,0,0,0,0,0,0,0,0,0,0,0,0,0,0,0,0,0,0,0,0,0,0,0,0,0,0,0,0,0,0,0,0,0,0,0,0,0,0,0,0,0,0,0,0,0,0,0,0,0,0],"sum_hessian":[4.64822E2,3.6587973E2,9.894226E1,3.2905008E2,3.6829643E1,3.23337E1,6.660857E1,3.1233307E2,1.6717031E1,2.2819036E1,1.4010608E1,1.9501884E1,1.2831814E1,1.7414453E0,1.4975587E1,9.096796E0,1.37222395E1,2.6766417E0,1.1333966E1,1.8388872E1,1.1130126E0,1.0778986E1,2.0528278E0,7.850841E0,7.1247454E0,4.5265126E0,4.5702834E0,5.6869698E0,8.03527E0,6.1815696E0,5.1523967E0,1.2432462E1,5.9564104E0,7.816444E0,2.9625413E0,1.9879284E0,5.136817E0,1.8340621E0,2.6924505E0,3.1209328E0,2.5660367E0,3.4538677E0,4.581403E0,5.0398555E0,1.1417143E0,1.100938E1,1.4230812E0,4.466681E0,1.4897293E0,1.4780244E0,6.33842E0],"tree_param":{"num_deleted":"0","num_feature":"64","num_nodes":"51","size_leaf_vector":"1"}},{"base_weights":[-3.2297627E-3,-3.8562912E-1,6.419502E-1,-5.376219E-1,-5.074141E-2,4.274693E-1,7.325723E-1,-5.804506E-1,-3.3406144E-1,1.5706415E-1,-1.4173728E-1,4.5861116E-1,-2.4969617E-1,7.367466E-1,1.823943E-2,-6.0065057E-2,-4.887369E-1,3.6414344E-2,-3.6664858E-1,1.9266683E-1,-3.967501E-2,5.1295888E-2,-3.1575957E-1,5.421437E-1,1.9609335E-1,2.2456616E-3,-4.1348234E-2,7.8689015E-1,6.6063327E-1,-3.378749E-1,-5.9295632E-2,-5.3328026E-2,-3.305799E-1,1.2190644E-1,4.2185754E-1,-1.5846196E-1,2.3403928E-1,-2.2526044E-1,-5.119471E-1,7.90531E-1,4.8487362E-1,-5.2358378E-2,6.94577E-2,1.4010347E-2,7.967173E-2,1.3238459E-2,6.707396E-2,-4.523238E-2,1.1226287E-2,2.9626602E-2,-3.6844846E-2,-2.7154151E-2,2.4061656E-2,6.219172E-2,-1.4104511E-2,-2.623469E-2,1.8280106E-2,3.2200787E-2,-1.8688349E-2,-3.9359413E-2,1.0908279E-2,-5.7852745E-2,-1.9339073E-2,2.542598E-2,8.8040195E-2,-1.183762E-2,5.0983705E-2,2.2803416E-2,-3.2996375E-2],"categories":[],"categories_nodes":[],"categories_segments":[],"categories_sizes":[],"default_left":[0,0,0,0,0,0,0,0,0,0,0,0,0,0,0,0,0,0,0,0,0,0,0,0,0,0,0,0,0,0,0,0,0,0,0,0,0,0,0,0,0,0,0,0,0,0,0,0,0,0,0,0,0,0,0,0,0,0,0,0,0,0,0,0,0,0,0,0,0],"id":22,"left_children":[1,3,5,7,9,11,13,15,17,19,21,23,25,27,-1,-1,29,-1,31,33,-1,35,37,39,41,-1,-1,43,45,47,-1,-1,49,51,53,55,57,59,61,63,65,67,-1,-1,-1,-1,-1,-1,-1,-1,-1,-1,-1,-1,-1,-1,-1,-1,-1,-1,-1,-1,-1,-1,-1,-1,-1,-1,-1],"loss_changes":[1.4369469E2,1.8586052E1,3.899643E0,1.9980164E0,2.2017877E0,1.5227556E0,2.1233368E-1,8.875275E-2,1.181467E0,7.778937E-1,2.7265954E0,1.3014154E0,1.6901986E-1,5.0735474E-2,0E0,0E0,4.6966934E-1,0E0,9.118128E-2,5.0159097E-1,0E0,1.5363833E0,6.405368E-1,3.0138683E-1,2.1495633E0,0E0,0E0,4.2796326E-1,2.6145935E-1,1.0675168E0,0E0,0E0,1.04004E0,1.3479784E0,9.478589E-1,7.147063E-1,8.491163E-1,1.7830907E0,1.5648556E-1,1.3434172E-1,6.8832684E-1,1.0339831E0,0E0,0E0,0E0,0E0,0E0,0E0,0E0,0E0,0E0,0E0,0E0,0E0,0E0,0E0,0E0,0E0,0E0,0E0,0E0,0E0,0E0,0E0,0E0,0E0,0E0,0E0,0E0],"parents":[2147483647,0,0,1,1,2,2,3,3,4,4,5,5,6,6,7,7,8,8,9,9,10,10,11,11,12,12,13,13,16,16,18,18,19,19,21,21,22,22,23,23,24,24,27,27,28,28,29,29,32,32,33,33,34,34,35,35,36,36,37,37,38,38,39,39,40,40,41,41],"right_children":[2,4,6,8,10,12,14,16,18,20,22,24,26,28,-1,-1,30,-1,32,34,-1,36,38,40,42,-1,-1,44,46,48,-1,-1,50,52,54,56,58,60,62,64,66,68,-1,-1,-1,-1,-1,-1,-1,-1,-1,-1,-1,-1,-1,-1,-1,-1,-1,-1,-1,-1,-1,-1,-1,-1,-1,-1,-1],"split_conditions":[5.7366905E0,4.68332E0,6.2861853E0,4.1137676E0,8.506335E-3,5.594388E0,1.34311095E-2,3.499128E0,4.1243496E0,4.742747E-3,4.6014533E0,4.97895E0,2.8533044E0,3.8739576E0,1.823943E-2,-6.0065057E-2,3.7701576E0,3.6414344E-2,4.218405E0,6.004459E0,-3.967501E-2,5.20366E0,5.787267E0,5.8369293E0,5.3153415E0,2.2456616E-3,-4.1348234E-2,6.638699E0,3.9095812E0,3.7195544E0,-5.9295632E-2,-5.3328026E-2,4.2394543E0,5.008538E0,5.0304127E0,4.2346406E0,5.66455E0,5.5305033E0,2.221297E0,3.8651876E0,5.8703794E0,5.1113887E0,6.94577E-2,1.4010347E-2,7.967173E-2,1.3238459E-2,6.707396E-2,-4.523238E-2,1.1226287E-2,2.9626602E-2,-3.6844846E-2,-2.7154151E-2,2.4061656E-2,6.219172E-2,-1.4104511E-2,-2.623469E-2,1.8280106E-2,3.2200787E-2,-1.8688349E-2,-3.9359413E-2,1.0908279E-2,-5.7852745E-2,-1.9339073E-2,2.542598E-2,8.8040195E-2,-1.183762E-2,5.0983705E-2,2.2803416E-2,-3.2996375E-2],"split_indices":[1,1,1,1,0,0,45,1,1,49,2,2,2,2,0,0,1,0,1,2,0,1,2,1,2,0,0,1,2,1,0,0,1,1,1,2,1,2,0,2,1,2,0,0,0,0,0,0,0,0,0,0,0,0,0,0,0,0,0,0,0,0,0,0,0,0,0,0,0],"split_type":[0,0,0,0,0,0,0,0,0,0,0,0,0,0,0,0,0,0,0,0,0,0,0,0,0,0,0,0,0,0,0,0,0,0,0,0,0,0,0,0,0,0,0,0,0,0,0,0,0,0,0,0,0,0,0,0,0,0,0,0,0,0,0,0,0,0,0,0,0],"sum_hessian":[5.804252E2,3.646806E2,2.1574457E2,2.5041937E2,1.14261215E2,6.5778824E1,1.4996574E2,2.0536052E2,4.505886E1,3.4575573E1,7.9685646E1,6.3195312E1,2.583509E0,1.4849994E2,1.4658089E0,1.6374615E2,4.1614357E1,1.5555491E0,4.350331E1,3.309982E1,1.4757566E0,3.8113598E1,4.1572044E1,4.7132645E1,1.6062666E1,1.2948433E0,1.2886657E0,8.389286E1,6.460707E1,1.873566E1,2.2878696E1,5.2880754E0,3.8215237E1,2.6461872E1,6.637945E0,1.780705E1,2.0306547E1,2.9918951E1,1.1653094E1,6.4321337E0,4.0700512E1,1.1317046E1,4.7456207E0,1.4839166E0,8.240894E1,1.4775237E0,6.3129547E1,1.493383E1,3.8018298E0,1.7883741E0,3.6426865E1,5.8350353E0,2.0626839E1,4.820031E0,1.8179137E0,1.38286705E1,3.9783804E0,1.6990665E1,3.315881E0,1.9781986E1,1.0136966E1,8.963559E0,2.689535E0,1.4728163E0,4.959317E0,1.4686257E0,3.9231888E1,5.7190967E0,5.597949E0],"tree_param":{"num_deleted":"0","num_feature":"64","num_nodes":"69","size_leaf_vector":"1"}},{"base_weights":[2.0008963E-1,-4.0628627E-1,6.0904515E-1,-4.8751602E-1,5.8491502E-2,6.663904E-1,1.8942825E-1,-6.0412146E-2,-3.5645854E-1,4.595904E-1,-1.2747443E-1,5.527621E-1,7.334986E-1,-1.0272553E-3,3.999581E-1,-1.123143E-1,-4.71564E-1,2.8750017E-1,7.386646E-2,-6.453548E-3,-3.321715E-1,4.5943445E-1,6.191333E-1,7.3712714E-2,1.1374114E-2,-3.4641105E-1,1.283844E-1,5.8835864E-1,-2.416599E-2,-1.8253738E-1,6.634107E-2,-4.80754E-1,4.023269E-3,4.8068348E-1,-3.198002E-2,1.0341783E-1,-5.6571104E-2,-2.3623634E-2,-6.028619E-2,5.136366E-1,1.6088904E-1,6.2848186E-1,1.5497296E-2,-5.290568E-1,1.3457756E-2,6.451448E-2,5.420298E-2,6.282827E-1,1.0478573E-2,-6.9602065E-2,3.7783974E-1,1.8948968E-2,-2.3360787E-2,-5.349716E-2,-3.873512E-2,6.1215527E-2,1.3744864E-2,2.957548E-2,-1.9763201E-2,-2.2479018E-2,3.8556606E-2,6.730794E-2,3.7821203E-2,8.093048E-2,-4.2045176E-2,5.2767493E-2,7.126466E-2,-1.522277E-2,-6.2373277E-2,1.3107021E-2,-5.1795106E-2,4.382391E-2,7.69011E-2,4.626226E-2,6.803227E-3],"categories":[],"categories_nodes":[],"categories_segments":[],"categories_sizes":[],"default_left":[0,0,0,0,0,0,0,0,0,0,0,0,0,0,0,0,0,0,0,0,0,0,0,0,0,0,0,0,0,0,0,0,0,0,0,0,0,0,0,0,0,0,0,0,0,0,0,0,0,0,0,0,0,0,0,0,0,0,0,0,0,0,0,0,0,0,0,0,0,0,0,0,0,0,0],"id":23,"left_children":[1,3,5,7,9,11,13,-1,15,17,19,21,23,25,27,29,31,33,-1,35,37,39,41,-1,-1,43,45,47,49,51,-1,53,-1,55,-1,57,-1,59,-1,61,63,65,-1,67,-1,-1,69,71,-1,-1,73,-1,-1,-1,-1,-1,-1,-1,-1,-1,-1,-1,-1,-1,-1,-1,-1,-1,-1,-1,-1,-1,-1,-1,-1],"loss_changes":[1.681091E2,1.0344643E1,9.611267E0,3.3408318E0,3.157384E0,2.3062744E0,2.0072558E0,0E0,3.0945387E0,4.3008327E-1,7.2039616E-1,5.585861E-1,4.1205597E-1,1.263594E0,1.9139552E0,2.14744E0,3.7587547E-1,1.3165843E0,0E0,1.2474738E0,8.8921857E-1,8.953943E-1,2.3524857E-1,0E0,0E0,7.480579E-1,7.5359035E-1,2.5274944E-1,2.497497E0,7.072538E-1,0E0,1.7027092E-1,0E0,2.7322423E-1,0E0,1.043839E0,0E0,5.8845556E-1,0E0,8.4011173E-1,4.389926E0,2.587452E-1,0E0,1.1151016E-1,0E0,0E0,9.0703326E-1,6.530666E-2,0E0,0E0,1.2150848E-1,0E0,0E0,0E0,0E0,0E0,0E0,0E0,0E0,0E0,0E0,0E0,0E0,0E0,0E0,0E0,0E0,0E0,0E0,0E0,0E0,0E0,0E0,0E0,0E0],"parents":[2147483647,0,0,1,1,2,2,3,3,4,4,5,5,6,6,8,8,9,9,10,10,11,11,12,12,13,13,14,14,15,15,16,16,17,17,19,19,20,20,21,21,22,22,25,25,26,26,27,27,28,28,29,29,31,31,33,33,35,35,37,37,39,39,40,40,41,41,43,43,46,46,47,47,50,50],"right_children":[2,4,6,8,10,12,14,-1,16,18,20,22,24,26,28,30,32,34,-1,36,38,40,42,-1,-1,44,46,48,50,52,-1,54,-1,56,-1,58,-1,60,-1,62,64,66,-1,68,-1,-1,70,72,-1,-1,74,-1,-1,-1,-1,-1,-1,-1,-1,-1,-1,-1,-1,-1,-1,-1,-1,-1,-1,-1,-1,-1,-1,-1,-1],"split_conditions":[4.8885713E0,4.5044193E0,5.4186425E0,3.5651526E0,5.519532E0,6.6527696E0,3.1789282E-1,-6.0412146E-2,5.906995E0,5.232006E0,4.770452E0,8.506335E-3,4.301341E0,5.07576E0,2.3964138E0,5.8369293E0,7.1841025E0,4.8843117E0,7.386646E-2,3.6724398E0,6.050725E0,5.10618E0,6.6070266E0,7.3712714E-2,1.1374114E-2,6.0897245E0,5.0945325E0,5.665586E0,2.642413E0,4.6360908E0,6.634107E-2,4.1788354E0,4.023269E-3,4.770452E0,-3.198002E-2,6.3208275E0,-5.6571104E-2,5.963709E0,-6.028619E-2,6.195928E0,5.5305033E0,5.787267E0,1.5497296E-2,5.68797E0,1.3457756E-2,6.451448E-2,5.929497E0,1.3685617E0,1.0478573E-2,-6.9602065E-2,5.1113887E0,1.8948968E-2,-2.3360787E-2,-5.349716E-2,-3.873512E-2,6.1215527E-2,1.3744864E-2,2.957548E-2,-1.9763201E-2,-2.2479018E-2,3.8556606E-2,6.730794E-2,3.7821203E-2,8.093048E-2,-4.2045176E-2,5.2767493E-2,7.126466E-2,-1.522277E-2,-6.2373277E-2,1.3107021E-2,-5.1795106E-2,4.382391E-2,7.69011E-2,4.626226E-2,6.803227E-3],"split_indices":[2,2,1,2,1,2,0,0,1,1,2,0,1,2,0,1,1,1,0,0,1,1,2,0,0,1,2,2,0,0,0,2,0,2,0,1,0,1,0,2,2,2,0,1,0,0,1,0,0,0,2,0,0,0,0,0,0,0,0,0,0,0,0,0,0,0,0,0,0,0,0,0,0,0,0],"split_type":[0,0,0,0,0,0,0,0,0,0,0,0,0,0,0,0,0,0,0,0,0,0,0,0,0,0,0,0,0,0,0,0,0,0,0,0,0,0,0,0,0,0,0,0,0,0,0,0,0,0,0,0,0,0,0,0,0,0,0,0,0,0,0,0,0,0,0,0,0,0,0,0,0,0,0],"sum_hessian":[6.75914E2,2.722475E2,4.036665E2,2.3170348E2,4.0544006E1,3.546162E2,4.9050285E1,1.20701996E2,1.1100148E2,1.2377133E1,2.8166874E1,1.3510008E2,2.1951613E2,2.6275402E1,2.2774883E1,3.6198483E1,7.480299E1,8.911857E0,3.4652765E0,1.8349703E1,9.817173E0,5.9440384E1,7.565969E1,2.1805013E2,1.4660071E0,6.7046633E0,1.9570738E1,1.5501649E1,7.2732334E0,3.3894817E1,2.3036654E0,7.354308E1,1.2599133E0,6.9193053E0,1.9925514E0,1.6017912E1,2.3317893E0,5.0958796E0,4.7212934E0,4.9697193E1,9.743193E0,7.38189E1,1.8407921E0,4.786971E0,1.9176921E0,1.4905385E0,1.80802E1,1.4042999E1,1.4586501E0,2.4489837E0,4.8242497E0,3.7641559E0,3.013066E1,4.354114E1,3.0001942E1,4.4364796E0,2.4828258E0,9.784383E0,6.23353E0,3.7184527E0,1.3774267E0,2.1001192E1,2.8696001E1,4.4205103E0,5.3226824E0,3.6896397E1,3.69225E1,1.4848506E0,3.3021207E0,1.6618475E1,1.4617257E0,7.7250032E0,6.317996E0,3.4004219E0,1.4238278E0],"tree_param":{"num_deleted":"0","num_feature":"64","num_nodes":"75","size_leaf_vector":"1"}},{"base_weights":[-2.526694E-1,-5.315613E-1,6.374914E-1,-5.728807E-2,-2.0892756E-1,6.713954E-1,-2.8815868E-1,1.2419919E-1,-2.8375468E-1,7.763502E-1,4.9064878E-1,6.7553795E-3,-4.39429E-2,8.613863E-2,-2.3599516E-1,2.0705776E-2,-3.2449538E-1,7.949158E-2,1.1921046E-2,-3.3984695E-2,6.0268253E-1,1.9455768E-2,-4.8188087E-2,-2.1328947E-1,-4.8691922E-1,2.1041031E-1,-3.6104363E-1,6.472193E-1,1.2498809E-1,3.3515316E-2,-3.4933683E-2,-5.571686E-2,-1.8231949E-2,4.1273676E-2,-2.9422573E-3,-6.867016E-3,-5.0150525E-2,7.703105E-2,4.4842552E-2,-4.557281E-2,7.1132876E-2],"categories":[],"categories_nodes":[],"categories_segments":[],"categories_sizes":[],"default_left":[0,0,0,0,0,0,0,0,0,0,0,0,0,0,0,0,0,0,0,0,0,0,0,0,0,0,0,0,0,0,0,0,0,0,0,0,0,0,0,0,0],"id":24,"left_children":[1,3,5,-1,7,9,11,13,15,17,19,-1,-1,-1,21,-1,23,-1,-1,25,27,-1,-1,29,31,33,35,37,39,-1,-1,-1,-1,-1,-1,-1,-1,-1,-1,-1,-1],"loss_changes":[1.1174732E2,4.4428177E0,3.567543E0,0E0,1.0430181E0,1.5922394E0,2.7173942E-1,2.3570306E0,7.334199E-1,6.8709564E-1,2.4260635E0,0E0,0E0,0E0,7.5369954E-1,0E0,4.588642E-1,0E0,0E0,7.272975E-1,6.377516E-1,0E0,0E0,1.6296734E0,1.5266371E-1,2.6910383E-1,1.23799145E-1,4.0478706E-1,1.7270428E0,0E0,0E0,0E0,0E0,0E0,0E0,0E0,0E0,0E0,0E0,0E0,0E0],"parents":[2147483647,0,0,1,1,2,2,4,4,5,5,6,6,7,7,8,8,9,9,10,10,14,14,16,16,19,19,20,20,23,23,24,24,25,25,26,26,27,27,28,28],"right_children":[2,4,6,-1,8,10,12,14,16,18,20,-1,-1,-1,22,-1,24,-1,-1,26,28,-1,-1,30,32,34,36,38,40,-1,-1,-1,-1,-1,-1,-1,-1,-1,-1,-1,-1],"split_conditions":[5.594388E0,4.0612125E0,4.559811E0,-5.728807E-2,3.8014631E0,2.66504E0,4.6296096E0,5.333703E0,4.19073E0,5.0879345E0,2.8250341E0,6.7553795E-3,-4.39429E-2,8.613863E-2,3.343336E0,2.0705776E-2,4.9355445E0,7.949158E-2,1.1921046E-2,2.7494535E0,5.4129896E0,1.9455768E-2,-4.8188087E-2,4.435765E0,5.68797E0,6.7403536E0,6.18984E0,3.5651526E0,5.620521E0,3.3515316E-2,-3.4933683E-2,-5.571686E-2,-1.8231949E-2,4.1273676E-2,-2.9422573E-3,-6.867016E-3,-5.0150525E-2,7.703105E-2,4.4842552E-2,-4.557281E-2,7.1132876E-2],"split_indices":[0,0,2,0,2,2,2,1,0,1,2,0,0,0,2,0,1,0,0,2,1,0,0,2,1,0,0,2,1,0,0,0,0,0,0,0,0,0,0,0,0],"split_type":[0,0,0,0,0,0,0,0,0,0,0,0,0,0,0,0,0,0,0,0,0,0,0,0,0,0,0,0,0,0,0,0,0,0,0,0,0,0,0,0,0],"sum_hessian":[4.477596E2,3.412478E2,1.06511826E2,3.0181857E2,3.9429237E1,1.030134E2,3.4984217E0,7.111108E0,3.231813E1,6.3085884E1,3.9927517E1,1.2089638E0,2.289458E0,1.8773682E0,5.23374E0,2.1641223E0,3.0154007E1,6.114865E1,1.9372337E0,7.1485977E0,3.277892E1,1.9783462E0,3.2553935E0,1.9272186E1,1.088182E1,4.295467E0,2.853131E0,2.965886E1,3.1200604E0,3.5396044E0,1.5732582E1,8.168702E0,2.713118E0,1.9388719E0,2.3565948E0,1.4090523E0,1.4440787E0,1.6541561E1,1.3117299E1,1.6794648E0,1.4405956E0],"tree_param":{"num_deleted":"0","num_feature":"64","num_nodes":"41","size_leaf_vector":"1"}},{"base_weights":[1.2214612E-3,-4.4318518E-1,5.21761E-1,-5.5647063E-1,-1.6492365E-1,2.0236585E-1,6.495029E-1,-5.8903713E-2,-4.7142395E-1,4.3421905E-2,-2.5055292E-1,1.0188006E-1,3.1977883E-1,7.5210504E-2,5.403583E-1,-3.1121166E-3,-4.8311406E-1,-4.8340272E-2,7.7366605E-2,-5.5179317E-2,-2.125991E-1,3.5111034E-1,-2.1702923E-2,3.567499E-1,-1.737923E-2,5.541191E-1,-7.3365434E-3,-3.9477882E-1,-5.4295927E-2,2.7033356E-1,-1.785451E-1,-2.3664828E-1,4.579195E-2,1.656033E-1,5.865993E-2,-1.2455587E-1,3.4877914E-1,4.553466E-1,8.425436E-2,5.737352E-1,1.7069572E-1,-7.315521E-3,-4.6368577E-2,4.240723E-2,-1.2038569E-2,-3.7146624E-2,7.865972E-3,-3.3843484E-2,-1.1097136E-2,4.325547E-2,-5.0838258E-2,2.809498E-2,-2.68295E-2,6.0167026E-2,7.91385E-3,7.34567E-2,2.7457923E-2,-1.548301E-2,3.4750726E-2,8.451476E-3,5.8346417E-2,4.434329E-2,-4.4159304E-2],"categories":[],"categories_nodes":[],"categories_segments":[],"categories_sizes":[],"default_left":[0,0,0,0,0,0,0,0,0,0,0,0,0,0,0,0,0,0,0,0,0,0,0,0,0,0,0,0,0,0,0,0,0,0,0,0,0,0,0,0,0,0,0,0,0,0,0,0,0,0,0,0,0,0,0,0,0,0,0,0,0,0,0],"id":25,"left_children":[1,3,5,7,9,11,13,-1,15,17,19,21,23,-1,25,-1,27,29,-1,-1,31,33,35,37,-1,39,-1,41,-1,43,45,47,-1,49,-1,51,53,55,57,59,61,-1,-1,-1,-1,-1,-1,-1,-1,-1,-1,-1,-1,-1,-1,-1,-1,-1,-1,-1,-1,-1,-1],"loss_changes":[1.3326884E2,9.704811E0,1.0693657E1,3.328476E-1,1.6403804E0,8.7886E-1,1.7108688E0,0E0,3.249197E-1,1.8772668E0,6.244788E-1,1.3349383E0,7.035501E-1,0E0,8.443527E-1,0E0,1.2540722E-1,1.0994143E0,0E0,0E0,1.0637531E0,5.294422E-1,1.1770931E0,8.4919643E-1,0E0,6.03014E-1,0E0,6.225314E-1,0E0,5.1634926E-1,9.515173E-1,7.0253897E-1,0E0,1.9141247E0,0E0,1.4755951E0,4.1114968E-1,1.0112381E0,6.8346995E-1,3.7065697E-1,1.1909959E0,0E0,0E0,0E0,0E0,0E0,0E0,0E0,0E0,0E0,0E0,0E0,0E0,0E0,0E0,0E0,0E0,0E0,0E0,0E0,0E0,0E0,0E0],"parents":[2147483647,0,0,1,1,2,2,3,3,4,4,5,5,6,6,8,8,9,9,10,10,11,11,12,12,14,14,16,16,17,17,20,20,21,21,22,22,23,23,25,25,27,27,29,29,30,30,31,31,33,33,35,35,36,36,37,37,38,38,39,39,40,40],"right_children":[2,4,6,8,10,12,14,-1,16,18,20,22,24,-1,26,-1,28,30,-1,-1,32,34,36,38,-1,40,-1,42,-1,44,46,48,-1,50,-1,52,54,56,58,60,62,-1,-1,-1,-1,-1,-1,-1,-1,